<?xml version="1.0"?>
<opencv_storage>
<cascade>
  <stageType>BOOST</stageType>
  <featureType>HAAR</featureType>
  <height>50</height>
  <width>50</width>
  <stageParams>
    <boostType>GAB</boostType>
    <minHitRate>9.9500000476837158e-01</minHitRate>
    <maxFalseAlarm>5.0000000000000000e-01</maxFalseAlarm>
    <weightTrimRate>9.4999999999999996e-01</weightTrimRate>
    <maxDepth>1</maxDepth>
    <maxWeakCount>100</maxWeakCount></stageParams>
  <featureParams>
    <maxCatCount>0</maxCatCount>
    <featSize>1</featSize>
    <mode>BASIC</mode></featureParams>
  <stageNum>30</stageNum>
  <stages>
    <!-- stage 0 -->
    <_>
      <maxWeakCount>5</maxWeakCount>
      <stageThreshold>-5.1618647575378418e-01</stageThreshold>
      <weakClassifiers>
        <_>
          <internalNodes>
            0 -1 186 -3.4338147379457951e-03</internalNodes>
          <leafValues>
            8.5669779777526855e-01 -3.6534446477890015e-01</leafValues></_>
        <_>
          <internalNodes>
            0 -1 219 -7.6439023017883301e-02</internalNodes>
          <leafValues>
            -9.2857033014297485e-01 4.1990491747856140e-01</leafValues></_>
        <_>
          <internalNodes>
            0 -1 82 -1.4263075590133667e-01</internalNodes>
          <leafValues>
            -7.9962307214736938e-01 2.9019847512245178e-01</leafValues></_>
        <_>
          <internalNodes>
            0 -1 265 1.4050889294594526e-03</internalNodes>
          <leafValues>
            -3.7720060348510742e-01 6.9739305973052979e-01</leafValues></_>
        <_>
          <internalNodes>
            0 -1 260 -1.8521407619118690e-03</internalNodes>
          <leafValues>
            7.3250973224639893e-01 -2.6861342787742615e-01</leafValues></_></weakClassifiers></_>
    <!-- stage 1 -->
    <_>
      <maxWeakCount>8</maxWeakCount>
      <stageThreshold>-8.3796870708465576e-01</stageThreshold>
      <weakClassifiers>
        <_>
          <internalNodes>
            0 -1 176 -8.3637032657861710e-03</internalNodes>
          <leafValues>
            7.5000000000000000e-01 -2.5806450843811035e-01</leafValues></_>
        <_>
          <internalNodes>
            0 -1 247 -8.6010396480560303e-03</internalNodes>
          <leafValues>
            6.6381376981735229e-01 -2.3055928945541382e-01</leafValues></_>
        <_>
          <internalNodes>
            0 -1 354 -1.8672026693820953e-02</internalNodes>
          <leafValues>
            8.5983800888061523e-01 -2.7757558226585388e-01</leafValues></_>
        <_>
          <internalNodes>
            0 -1 356 1.3606198132038116e-02</internalNodes>
          <leafValues>
            -2.2633872926235199e-01 8.4162569046020508e-01</leafValues></_>
        <_>
          <internalNodes>
            0 -1 12 4.3843194842338562e-02</internalNodes>
          <leafValues>
            -1.3891460001468658e-01 8.4787499904632568e-01</leafValues></_>
        <_>
          <internalNodes>
            0 -1 14 -1.0580981150269508e-02</internalNodes>
          <leafValues>
            7.4455732107162476e-01 -2.1111123263835907e-01</leafValues></_>
        <_>
          <internalNodes>
            0 -1 270 5.8453530073165894e-03</internalNodes>
          <leafValues>
            -2.6054140925407410e-01 5.8495235443115234e-01</leafValues></_>
        <_>
          <internalNodes>
            0 -1 11 1.1596081778407097e-02</internalNodes>
          <leafValues>
            -1.9053189456462860e-01 8.3256429433822632e-01</leafValues></_></weakClassifiers></_>
    <!-- stage 2 -->
    <_>
      <maxWeakCount>10</maxWeakCount>
      <stageThreshold>-1.0857058763504028e+00</stageThreshold>
      <weakClassifiers>
        <_>
          <internalNodes>
            0 -1 314 -3.2543055713176727e-02</internalNodes>
          <leafValues>
            -4.8837208747863770e-01 4.9498999118804932e-01</leafValues></_>
        <_>
          <internalNodes>
            0 -1 269 4.6565113589167595e-03</internalNodes>
          <leafValues>
            -3.1654462218284607e-01 5.5691581964492798e-01</leafValues></_>
        <_>
          <internalNodes>
            0 -1 3 -1.1769951879978180e-01</internalNodes>
          <leafValues>
            -1.4684931933879852e-01 8.3767729997634888e-01</leafValues></_>
        <_>
          <internalNodes>
            0 -1 327 3.0753716826438904e-02</internalNodes>
          <leafValues>
            -1.6825169324874878e-01 8.3925294876098633e-01</leafValues></_>
        <_>
          <internalNodes>
            0 -1 359 -7.5335986912250519e-03</internalNodes>
          <leafValues>
            6.7361658811569214e-01 -2.2705282270908356e-01</leafValues></_>
        <_>
          <internalNodes>
            0 -1 203 9.1906322631984949e-04</internalNodes>
          <leafValues>
            -1.8092985451221466e-01 7.7326005697250366e-01</leafValues></_>
        <_>
          <internalNodes>
            0 -1 47 -1.4288395643234253e-02</internalNodes>
          <leafValues>
            -9.7171908617019653e-01 1.9766090810298920e-01</leafValues></_>
        <_>
          <internalNodes>
            0 -1 33 5.6016365997493267e-03</internalNodes>
          <leafValues>
            -2.1828442811965942e-01 7.7069675922393799e-01</leafValues></_>
        <_>
          <internalNodes>
            0 -1 50 -3.6836038343608379e-03</internalNodes>
          <leafValues>
            4.8108279705047607e-01 -2.7432531118392944e-01</leafValues></_>
        <_>
          <internalNodes>
            0 -1 158 -5.9804238844662905e-04</internalNodes>
          <leafValues>
            4.8433971405029297e-01 -2.7026122808456421e-01</leafValues></_></weakClassifiers></_>
    <!-- stage 3 -->
    <_>
      <maxWeakCount>13</maxWeakCount>
      <stageThreshold>-1.1228872537612915e+00</stageThreshold>
      <weakClassifiers>
        <_>
          <internalNodes>
            0 -1 189 -8.6159929633140564e-03</internalNodes>
          <leafValues>
            6.4067798852920532e-01 -1.7623762786388397e-01</leafValues></_>
        <_>
          <internalNodes>
            0 -1 157 -2.4882797151803970e-03</internalNodes>
          <leafValues>
            -1.2750816345214844e-01 7.8903508186340332e-01</leafValues></_>
        <_>
          <internalNodes>
            0 -1 194 -2.2799911675974727e-04</internalNodes>
          <leafValues>
            -7.6995587348937988e-01 1.5121646225452423e-01</leafValues></_>
        <_>
          <internalNodes>
            0 -1 275 5.7835718616843224e-03</internalNodes>
          <leafValues>
            -2.0593956112861633e-01 6.0688066482543945e-01</leafValues></_>
        <_>
          <internalNodes>
            0 -1 180 3.0492451041936874e-02</internalNodes>
          <leafValues>
            -1.1787485331296921e-01 8.1024676561355591e-01</leafValues></_>
        <_>
          <internalNodes>
            0 -1 296 6.2357392162084579e-03</internalNodes>
          <leafValues>
            -1.5999029576778412e-01 6.1135786771774292e-01</leafValues></_>
        <_>
          <internalNodes>
            0 -1 41 -5.2974127233028412e-02</internalNodes>
          <leafValues>
            -5.6346094608306885e-01 1.9081285595893860e-01</leafValues></_>
        <_>
          <internalNodes>
            0 -1 19 -2.2678112611174583e-02</internalNodes>
          <leafValues>
            6.4169657230377197e-01 -1.6825447976589203e-01</leafValues></_>
        <_>
          <internalNodes>
            0 -1 184 1.8858155235648155e-03</internalNodes>
          <leafValues>
            -1.9919383525848389e-01 5.7607448101043701e-01</leafValues></_>
        <_>
          <internalNodes>
            0 -1 231 7.6077187259215862e-05</internalNodes>
          <leafValues>
            1.8695537745952606e-01 -6.7275792360305786e-01</leafValues></_>
        <_>
          <internalNodes>
            0 -1 304 -4.2248308658599854e-02</internalNodes>
          <leafValues>
            6.8569737672805786e-01 -1.7819078266620636e-01</leafValues></_>
        <_>
          <internalNodes>
            0 -1 350 1.5952682122588158e-02</internalNodes>
          <leafValues>
            -1.8629203736782074e-01 5.8125907182693481e-01</leafValues></_>
        <_>
          <internalNodes>
            0 -1 16 1.3260576874017715e-02</internalNodes>
          <leafValues>
            -1.5338477492332458e-01 6.2025845050811768e-01</leafValues></_></weakClassifiers></_>
    <!-- stage 4 -->
    <_>
      <maxWeakCount>11</maxWeakCount>
      <stageThreshold>-6.9554114341735840e-01</stageThreshold>
      <weakClassifiers>
        <_>
          <internalNodes>
            0 -1 151 7.1845473721623421e-03</internalNodes>
          <leafValues>
            -2.0879121124744415e-01 5.6521737575531006e-01</leafValues></_>
        <_>
          <internalNodes>
            0 -1 144 -3.6964062601327896e-02</internalNodes>
          <leafValues>
            6.7304569482803345e-01 -2.2063712775707245e-01</leafValues></_>
        <_>
          <internalNodes>
            0 -1 166 3.6692082881927490e-02</internalNodes>
          <leafValues>
            -2.9829433560371399e-01 6.8542093038558960e-01</leafValues></_>
        <_>
          <internalNodes>
            0 -1 234 -2.3652732488699257e-04</internalNodes>
          <leafValues>
            -5.7609933614730835e-01 2.5188332796096802e-01</leafValues></_>
        <_>
          <internalNodes>
            0 -1 252 7.0012430660426617e-03</internalNodes>
          <leafValues>
            -2.0130212604999542e-01 5.6955504417419434e-01</leafValues></_>
        <_>
          <internalNodes>
            0 -1 197 -6.8119930801913142e-05</internalNodes>
          <leafValues>
            -7.3192995786666870e-01 1.2236595898866653e-01</leafValues></_>
        <_>
          <internalNodes>
            0 -1 72 1.4914201572537422e-02</internalNodes>
          <leafValues>
            -2.0086260139942169e-01 6.1350035667419434e-01</leafValues></_>
        <_>
          <internalNodes>
            0 -1 196 3.1154009047895670e-04</internalNodes>
          <leafValues>
            1.5278452634811401e-01 -8.1261861324310303e-01</leafValues></_>
        <_>
          <internalNodes>
            0 -1 338 2.3897634819149971e-03</internalNodes>
          <leafValues>
            -2.9058077931404114e-01 4.0109124779701233e-01</leafValues></_>
        <_>
          <internalNodes>
            0 -1 279 5.9605034039122984e-05</internalNodes>
          <leafValues>
            2.4923428893089294e-01 -6.0256564617156982e-01</leafValues></_>
        <_>
          <internalNodes>
            0 -1 172 7.6659978367388248e-04</internalNodes>
          <leafValues>
            1.1128279566764832e-01 -7.9937350749969482e-01</leafValues></_></weakClassifiers></_>
    <!-- stage 5 -->
    <_>
      <maxWeakCount>5</maxWeakCount>
      <stageThreshold>-2.1466004848480225e-01</stageThreshold>
      <weakClassifiers>
        <_>
          <internalNodes>
            0 -1 181 -8.6146523244678974e-04</internalNodes>
          <leafValues>
            -8.8135594129562378e-01 2.9912024736404419e-01</leafValues></_>
        <_>
          <internalNodes>
            0 -1 154 -4.7496110200881958e-02</internalNodes>
          <leafValues>
            5.2869260311126709e-01 -3.5544776916503906e-01</leafValues></_>
        <_>
          <internalNodes>
            0 -1 51 -5.8899648487567902e-02</internalNodes>
          <leafValues>
            7.8863662481307983e-01 -2.1804250776767731e-01</leafValues></_>
        <_>
          <internalNodes>
            0 -1 73 1.0516820475459099e-04</internalNodes>
          <leafValues>
            2.1842721104621887e-01 -8.1565028429031372e-01</leafValues></_>
        <_>
          <internalNodes>
            0 -1 373 -1.5839576371945441e-04</internalNodes>
          <leafValues>
            -9.2314112186431885e-01 1.6501694917678833e-01</leafValues></_></weakClassifiers></_>
    <!-- stage 6 -->
    <_>
      <maxWeakCount>9</maxWeakCount>
      <stageThreshold>-7.1039956808090210e-01</stageThreshold>
      <weakClassifiers>
        <_>
          <internalNodes>
            0 -1 59 1.8170138355344534e-04</internalNodes>
          <leafValues>
            2.6062321662902832e-01 -8.9361703395843506e-01</leafValues></_>
        <_>
          <internalNodes>
            0 -1 74 -4.7134820371866226e-02</internalNodes>
          <leafValues>
            6.5410745143890381e-01 -2.0996257662773132e-01</leafValues></_>
        <_>
          <internalNodes>
            0 -1 142 -2.2241419181227684e-02</internalNodes>
          <leafValues>
            3.9505606889724731e-01 -4.8433017730712891e-01</leafValues></_>
        <_>
          <internalNodes>
            0 -1 372 -1.6149802831932902e-04</internalNodes>
          <leafValues>
            -9.0404695272445679e-01 1.1102203279733658e-01</leafValues></_>
        <_>
          <internalNodes>
            0 -1 281 -1.3630929170176387e-03</internalNodes>
          <leafValues>
            4.4531178474426270e-01 -3.1681790947914124e-01</leafValues></_>
        <_>
          <internalNodes>
            0 -1 230 -1.6377741121686995e-04</internalNodes>
          <leafValues>
            -9.4507139921188354e-01 1.3040745258331299e-01</leafValues></_>
        <_>
          <internalNodes>
            0 -1 347 4.7496810555458069e-02</internalNodes>
          <leafValues>
            -1.6871707141399384e-01 8.6399376392364502e-01</leafValues></_>
        <_>
          <internalNodes>
            0 -1 20 3.1550880521535873e-02</internalNodes>
          <leafValues>
            -2.1065740287303925e-01 7.2756445407867432e-01</leafValues></_>
        <_>
          <internalNodes>
            0 -1 68 -1.9962369697168469e-04</internalNodes>
          <leafValues>
            1.7803283035755157e-01 -9.5411342382431030e-01</leafValues></_></weakClassifiers></_>
    <!-- stage 7 -->
    <_>
      <maxWeakCount>10</maxWeakCount>
      <stageThreshold>-8.7337678670883179e-01</stageThreshold>
      <weakClassifiers>
        <_>
          <internalNodes>
            0 -1 56 -8.6953192949295044e-02</internalNodes>
          <leafValues>
            7.3459714651107788e-01 -9.3378610908985138e-02</leafValues></_>
        <_>
          <internalNodes>
            0 -1 31 3.1019631773233414e-02</internalNodes>
          <leafValues>
            -1.6579069197177887e-01 7.3785412311553955e-01</leafValues></_>
        <_>
          <internalNodes>
            0 -1 71 3.6962196230888367e-02</internalNodes>
          <leafValues>
            -1.8801540136337280e-01 6.0309070348739624e-01</leafValues></_>
        <_>
          <internalNodes>
            0 -1 215 1.7362870858050883e-04</internalNodes>
          <leafValues>
            2.0319101214408875e-01 -5.7550787925720215e-01</leafValues></_>
        <_>
          <internalNodes>
            0 -1 294 1.0459845361765474e-04</internalNodes>
          <leafValues>
            1.0444207489490509e-01 -7.6325500011444092e-01</leafValues></_>
        <_>
          <internalNodes>
            0 -1 174 -3.6857547238469124e-03</internalNodes>
          <leafValues>
            -9.3600839376449585e-01 1.0286281257867813e-01</leafValues></_>
        <_>
          <internalNodes>
            0 -1 352 -1.8458848353475332e-03</internalNodes>
          <leafValues>
            1.4446018636226654e-01 -8.0201822519302368e-01</leafValues></_>
        <_>
          <internalNodes>
            0 -1 358 -7.7069905819371343e-04</internalNodes>
          <leafValues>
            -8.0844116210937500e-01 9.4995804131031036e-02</leafValues></_>
        <_>
          <internalNodes>
            0 -1 78 9.1028260067105293e-04</internalNodes>
          <leafValues>
            -3.6705410480499268e-01 2.9427701234817505e-01</leafValues></_>
        <_>
          <internalNodes>
            0 -1 148 -5.0910110585391521e-03</internalNodes>
          <leafValues>
            -7.6262515783309937e-01 1.5860721468925476e-01</leafValues></_></weakClassifiers></_>
    <!-- stage 8 -->
    <_>
      <maxWeakCount>12</maxWeakCount>
      <stageThreshold>-7.2398382425308228e-01</stageThreshold>
      <weakClassifiers>
        <_>
          <internalNodes>
            0 -1 6 -3.3853221684694290e-02</internalNodes>
          <leafValues>
            8.8800001144409180e-01 -1.6296295449137688e-02</leafValues></_>
        <_>
          <internalNodes>
            0 -1 97 1.3399537419900298e-03</internalNodes>
          <leafValues>
            1.7724536359310150e-01 -7.5584250688552856e-01</leafValues></_>
        <_>
          <internalNodes>
            0 -1 226 -5.9350946685299277e-04</internalNodes>
          <leafValues>
            9.6939116716384888e-02 -8.7914681434631348e-01</leafValues></_>
        <_>
          <internalNodes>
            0 -1 301 4.2934324592351913e-03</internalNodes>
          <leafValues>
            -3.5722109675407410e-01 3.2701545953750610e-01</leafValues></_>
        <_>
          <internalNodes>
            0 -1 218 1.4683045446872711e-04</internalNodes>
          <leafValues>
            -2.6577690243721008e-01 4.0082836151123047e-01</leafValues></_>
        <_>
          <internalNodes>
            0 -1 70 -2.6192525401711464e-02</internalNodes>
          <leafValues>
            -9.1634780168533325e-01 1.5094451606273651e-01</leafValues></_>
        <_>
          <internalNodes>
            0 -1 241 -2.0282009791117162e-04</internalNodes>
          <leafValues>
            2.8194680809974670e-01 -3.5833263397216797e-01</leafValues></_>
        <_>
          <internalNodes>
            0 -1 107 1.5476284548640251e-02</internalNodes>
          <leafValues>
            2.7979469299316406e-01 -4.1411167383193970e-01</leafValues></_>
        <_>
          <internalNodes>
            0 -1 224 -3.5237276460975409e-04</internalNodes>
          <leafValues>
            -8.1030201911926270e-01 1.0729090869426727e-01</leafValues></_>
        <_>
          <internalNodes>
            0 -1 65 -2.2091664373874664e-02</internalNodes>
          <leafValues>
            5.6201159954071045e-01 -1.9279304146766663e-01</leafValues></_>
        <_>
          <internalNodes>
            0 -1 13 6.9249749183654785e-02</internalNodes>
          <leafValues>
            -2.0386965572834015e-01 6.3319808244705200e-01</leafValues></_>
        <_>
          <internalNodes>
            0 -1 49 -3.2051323796622455e-04</internalNodes>
          <leafValues>
            1.4994056522846222e-01 -8.8234984874725342e-01</leafValues></_></weakClassifiers></_>
    <!-- stage 9 -->
    <_>
      <maxWeakCount>13</maxWeakCount>
      <stageThreshold>-8.0487859249114990e-01</stageThreshold>
      <weakClassifiers>
        <_>
          <internalNodes>
            0 -1 87 -9.0977929532527924e-02</internalNodes>
          <leafValues>
            7.1428573131561279e-01 -9.4339624047279358e-02</leafValues></_>
        <_>
          <internalNodes>
            0 -1 339 -4.5867677778005600e-02</internalNodes>
          <leafValues>
            6.4255356788635254e-01 -1.5249025821685791e-01</leafValues></_>
        <_>
          <internalNodes>
            0 -1 123 1.0654579382389784e-03</internalNodes>
          <leafValues>
            1.7328354716300964e-01 -6.7162799835205078e-01</leafValues></_>
        <_>
          <internalNodes>
            0 -1 150 9.4362124800682068e-03</internalNodes>
          <leafValues>
            -2.7860087156295776e-01 4.3105936050415039e-01</leafValues></_>
        <_>
          <internalNodes>
            0 -1 278 -6.1613216530531645e-04</internalNodes>
          <leafValues>
            -5.0951886177062988e-01 2.1320374310016632e-01</leafValues></_>
        <_>
          <internalNodes>
            0 -1 141 1.7425903934054077e-04</internalNodes>
          <leafValues>
            -1.9131973385810852e-01 6.6828525066375732e-01</leafValues></_>
        <_>
          <internalNodes>
            0 -1 290 -4.4492629240266979e-04</internalNodes>
          <leafValues>
            -8.2773101329803467e-01 1.4281429350376129e-01</leafValues></_>
        <_>
          <internalNodes>
            0 -1 43 -2.4752052500844002e-02</internalNodes>
          <leafValues>
            6.8223285675048828e-01 -1.6454659402370453e-01</leafValues></_>
        <_>
          <internalNodes>
            0 -1 120 2.6435794308781624e-02</internalNodes>
          <leafValues>
            -2.0503540337085724e-01 5.3602981567382813e-01</leafValues></_>
        <_>
          <internalNodes>
            0 -1 353 2.9738876968622208e-02</internalNodes>
          <leafValues>
            -1.6556471586227417e-01 6.2723225355148315e-01</leafValues></_>
        <_>
          <internalNodes>
            0 -1 363 -6.0843524988740683e-04</internalNodes>
          <leafValues>
            -6.5693444013595581e-01 1.7117069661617279e-01</leafValues></_>
        <_>
          <internalNodes>
            0 -1 98 1.5977902512531728e-04</internalNodes>
          <leafValues>
            -3.0710417032241821e-01 3.3450499176979065e-01</leafValues></_>
        <_>
          <internalNodes>
            0 -1 368 -4.4220394920557737e-04</internalNodes>
          <leafValues>
            1.5424378216266632e-01 -8.3422172069549561e-01</leafValues></_></weakClassifiers></_>
    <!-- stage 10 -->
    <_>
      <maxWeakCount>11</maxWeakCount>
      <stageThreshold>-5.9670436382293701e-01</stageThreshold>
      <weakClassifiers>
        <_>
          <internalNodes>
            0 -1 147 -6.1146967113018036e-02</internalNodes>
          <leafValues>
            -8.8135594129562378e-01 2.9912024736404419e-01</leafValues></_>
        <_>
          <internalNodes>
            0 -1 159 -1.0507237166166306e-02</internalNodes>
          <leafValues>
            4.2901551723480225e-01 -3.7148368358612061e-01</leafValues></_>
        <_>
          <internalNodes>
            0 -1 291 -3.5063880495727062e-03</internalNodes>
          <leafValues>
            6.3973826169967651e-01 -1.9520348310470581e-01</leafValues></_>
        <_>
          <internalNodes>
            0 -1 5 2.2315472364425659e-02</internalNodes>
          <leafValues>
            -1.2764672935009003e-01 7.3446375131607056e-01</leafValues></_>
        <_>
          <internalNodes>
            0 -1 10 -2.9765956103801727e-02</internalNodes>
          <leafValues>
            6.1382859945297241e-01 -1.9597761332988739e-01</leafValues></_>
        <_>
          <internalNodes>
            0 -1 271 7.0050675421953201e-03</internalNodes>
          <leafValues>
            -1.7223101854324341e-01 5.7314187288284302e-01</leafValues></_>
        <_>
          <internalNodes>
            0 -1 340 2.9264028853503987e-05</internalNodes>
          <leafValues>
            -3.3968654274940491e-01 4.1301983594894409e-01</leafValues></_>
        <_>
          <internalNodes>
            0 -1 8 3.0506029725074768e-02</internalNodes>
          <leafValues>
            2.1593862771987915e-01 -5.8442676067352295e-01</leafValues></_>
        <_>
          <internalNodes>
            0 -1 46 3.0189540237188339e-02</internalNodes>
          <leafValues>
            1.3715635240077972e-01 -6.9114357233047485e-01</leafValues></_>
        <_>
          <internalNodes>
            0 -1 63 -2.3746374994516373e-02</internalNodes>
          <leafValues>
            -8.3623933792114258e-01 1.1778354644775391e-01</leafValues></_>
        <_>
          <internalNodes>
            0 -1 21 1.6281145508401096e-04</internalNodes>
          <leafValues>
            1.1831912398338318e-01 -9.4035661220550537e-01</leafValues></_></weakClassifiers></_>
    <!-- stage 11 -->
    <_>
      <maxWeakCount>17</maxWeakCount>
      <stageThreshold>-1.0223809480667114e+00</stageThreshold>
      <weakClassifiers>
        <_>
          <internalNodes>
            0 -1 191 6.1682885279878974e-04</internalNodes>
          <leafValues>
            -2.5497287511825562e-01 4.0634006261825562e-01</leafValues></_>
        <_>
          <internalNodes>
            0 -1 167 -9.7064256668090820e-02</internalNodes>
          <leafValues>
            6.7421048879623413e-01 -1.2822031974792480e-01</leafValues></_>
        <_>
          <internalNodes>
            0 -1 361 -2.7622569352388382e-02</internalNodes>
          <leafValues>
            6.1400198936462402e-01 -1.4364470541477203e-01</leafValues></_>
        <_>
          <internalNodes>
            0 -1 266 1.2814104557037354e-03</internalNodes>
          <leafValues>
            -2.0241326093673706e-01 3.9566087722778320e-01</leafValues></_>
        <_>
          <internalNodes>
            0 -1 357 1.3648622669279575e-02</internalNodes>
          <leafValues>
            -1.7214743793010712e-01 5.0709331035614014e-01</leafValues></_>
        <_>
          <internalNodes>
            0 -1 114 5.1902290433645248e-03</internalNodes>
          <leafValues>
            -1.5725187957286835e-01 5.1377451419830322e-01</leafValues></_>
        <_>
          <internalNodes>
            0 -1 309 7.6980027370154858e-04</internalNodes>
          <leafValues>
            -1.4564783871173859e-01 5.0946760177612305e-01</leafValues></_>
        <_>
          <internalNodes>
            0 -1 104 4.4660139246843755e-04</internalNodes>
          <leafValues>
            1.1022192984819412e-01 -7.1884602308273315e-01</leafValues></_>
        <_>
          <internalNodes>
            0 -1 288 2.3754080757498741e-04</internalNodes>
          <leafValues>
            -1.7049856483936310e-01 4.8676365613937378e-01</leafValues></_>
        <_>
          <internalNodes>
            0 -1 264 -1.5277250204235315e-03</internalNodes>
          <leafValues>
            3.4945386648178101e-01 -2.4540317058563232e-01</leafValues></_>
        <_>
          <internalNodes>
            0 -1 261 2.3856353946030140e-03</internalNodes>
          <leafValues>
            -1.5559387207031250e-01 5.2356714010238647e-01</leafValues></_>
        <_>
          <internalNodes>
            0 -1 374 -5.4298050235956907e-04</internalNodes>
          <leafValues>
            -9.2776179313659668e-01 1.3714654743671417e-01</leafValues></_>
        <_>
          <internalNodes>
            0 -1 370 -3.5036099143326283e-04</internalNodes>
          <leafValues>
            -8.4026950597763062e-01 4.5547980815172195e-02</leafValues></_>
        <_>
          <internalNodes>
            0 -1 134 -2.6530673494562507e-04</internalNodes>
          <leafValues>
            3.2066905498504639e-01 -2.8236022591590881e-01</leafValues></_>
        <_>
          <internalNodes>
            0 -1 182 8.2038820255547762e-04</internalNodes>
          <leafValues>
            1.1470400542020798e-01 -8.2348555326461792e-01</leafValues></_>
        <_>
          <internalNodes>
            0 -1 85 2.1857786923646927e-02</internalNodes>
          <leafValues>
            9.4148486852645874e-02 -7.0003169775009155e-01</leafValues></_>
        <_>
          <internalNodes>
            0 -1 27 -4.0853183716535568e-02</internalNodes>
          <leafValues>
            6.9280493259429932e-01 -1.2111121416091919e-01</leafValues></_></weakClassifiers></_>
    <!-- stage 12 -->
    <_>
      <maxWeakCount>5</maxWeakCount>
      <stageThreshold>-7.9503822326660156e-01</stageThreshold>
      <weakClassifiers>
        <_>
          <internalNodes>
            0 -1 251 9.4703501090407372e-03</internalNodes>
          <leafValues>
            -3.5025382041931152e-01 6.6990292072296143e-01</leafValues></_>
        <_>
          <internalNodes>
            0 -1 315 1.7244543414562941e-05</internalNodes>
          <leafValues>
            -2.8063568472862244e-01 6.8131697177886963e-01</leafValues></_>
        <_>
          <internalNodes>
            0 -1 315 -2.3223678908834700e-06</internalNodes>
          <leafValues>
            5.8884239196777344e-01 -4.0130606293678284e-01</leafValues></_>
        <_>
          <internalNodes>
            0 -1 237 5.3892927098786458e-06</internalNodes>
          <leafValues>
            -2.3299391567707062e-01 6.1386764049530029e-01</leafValues></_>
        <_>
          <internalNodes>
            0 -1 237 -6.2292051552503835e-06</internalNodes>
          <leafValues>
            4.9357044696807861e-01 -3.7671029567718506e-01</leafValues></_></weakClassifiers></_>
    <!-- stage 13 -->
    <_>
      <maxWeakCount>8</maxWeakCount>
      <stageThreshold>-1.0173517465591431e+00</stageThreshold>
      <weakClassifiers>
        <_>
          <internalNodes>
            0 -1 267 -1.5465270262211561e-03</internalNodes>
          <leafValues>
            -6.4968150854110718e-01 3.4812286496162415e-01</leafValues></_>
        <_>
          <internalNodes>
            0 -1 282 7.7863346086815000e-04</internalNodes>
          <leafValues>
            -2.4304190278053284e-01 6.7588669061660767e-01</leafValues></_>
        <_>
          <internalNodes>
            0 -1 156 -3.0597893783124164e-05</internalNodes>
          <leafValues>
            6.1422216892242432e-01 -2.4210761487483978e-01</leafValues></_>
        <_>
          <internalNodes>
            0 -1 254 3.0058138236199738e-06</internalNodes>
          <leafValues>
            -2.8026589751243591e-01 4.8205512762069702e-01</leafValues></_>
        <_>
          <internalNodes>
            0 -1 254 -3.1238409974321257e-06</internalNodes>
          <leafValues>
            5.8576959371566772e-01 -3.3511975407600403e-01</leafValues></_>
        <_>
          <internalNodes>
            0 -1 160 -1.0227099992334843e-03</internalNodes>
          <leafValues>
            -3.2191362977027893e-01 4.2830392718315125e-01</leafValues></_>
        <_>
          <internalNodes>
            0 -1 328 4.2300580389564857e-05</internalNodes>
          <leafValues>
            -2.4100507795810699e-01 6.3357603549957275e-01</leafValues></_>
        <_>
          <internalNodes>
            0 -1 312 4.7443376388400793e-05</internalNodes>
          <leafValues>
            -2.1675494313240051e-01 6.4612388610839844e-01</leafValues></_></weakClassifiers></_>
    <!-- stage 14 -->
    <_>
      <maxWeakCount>12</maxWeakCount>
      <stageThreshold>-9.7731000185012817e-01</stageThreshold>
      <weakClassifiers>
        <_>
          <internalNodes>
            0 -1 26 -2.2445517778396606e-01</internalNodes>
          <leafValues>
            -2.7386540174484253e-01 6.7049807310104370e-01</leafValues></_>
        <_>
          <internalNodes>
            0 -1 119 4.6463306993246078e-02</internalNodes>
          <leafValues>
            -1.3150522112846375e-01 7.9364901781082153e-01</leafValues></_>
        <_>
          <internalNodes>
            0 -1 66 -7.2115518152713776e-02</internalNodes>
          <leafValues>
            5.7636785507202148e-01 -2.2048015892505646e-01</leafValues></_>
        <_>
          <internalNodes>
            0 -1 190 -4.3517968151718378e-04</internalNodes>
          <leafValues>
            7.7103775739669800e-01 -1.3883146643638611e-01</leafValues></_>
        <_>
          <internalNodes>
            0 -1 273 -3.6644807551056147e-05</internalNodes>
          <leafValues>
            5.1162600517272949e-01 -1.9706849753856659e-01</leafValues></_>
        <_>
          <internalNodes>
            0 -1 273 9.8801014246419072e-05</internalNodes>
          <leafValues>
            -1.4697384834289551e-01 7.3343837261199951e-01</leafValues></_>
        <_>
          <internalNodes>
            0 -1 88 2.6156003514188342e-06</internalNodes>
          <leafValues>
            -2.5711226463317871e-01 3.6601734161376953e-01</leafValues></_>
        <_>
          <internalNodes>
            0 -1 153 -3.1195557676255703e-03</internalNodes>
          <leafValues>
            -1.4120033383369446e-01 6.2636995315551758e-01</leafValues></_>
        <_>
          <internalNodes>
            0 -1 362 9.5563827926525846e-06</internalNodes>
          <leafValues>
            -2.7981284260749817e-01 3.9031007885932922e-01</leafValues></_>
        <_>
          <internalNodes>
            0 -1 156 -1.3210998076829128e-05</internalNodes>
          <leafValues>
            3.8576990365982056e-01 -2.4924127757549286e-01</leafValues></_>
        <_>
          <internalNodes>
            0 -1 204 -6.9000758230686188e-05</internalNodes>
          <leafValues>
            6.2547773122787476e-01 -1.5319196879863739e-01</leafValues></_>
        <_>
          <internalNodes>
            0 -1 187 -2.1052279043942690e-04</internalNodes>
          <leafValues>
            8.6357295513153076e-01 -1.3173240423202515e-01</leafValues></_></weakClassifiers></_>
    <!-- stage 15 -->
    <_>
      <maxWeakCount>10</maxWeakCount>
      <stageThreshold>-1.1560267210006714e+00</stageThreshold>
      <weakClassifiers>
        <_>
          <internalNodes>
            0 -1 100 7.5392415747046471e-03</internalNodes>
          <leafValues>
            -4.4036698341369629e-01 4.1379311680793762e-01</leafValues></_>
        <_>
          <internalNodes>
            0 -1 75 2.0757127553224564e-02</internalNodes>
          <leafValues>
            -2.6391130685806274e-01 5.2616101503372192e-01</leafValues></_>
        <_>
          <internalNodes>
            0 -1 81 3.5528987646102905e-02</internalNodes>
          <leafValues>
            -1.5342274308204651e-01 7.5926023721694946e-01</leafValues></_>
        <_>
          <internalNodes>
            0 -1 57 -3.3458866178989410e-02</internalNodes>
          <leafValues>
            5.1632183790206909e-01 -3.5009926557540894e-01</leafValues></_>
        <_>
          <internalNodes>
            0 -1 111 -3.6865947768092155e-03</internalNodes>
          <leafValues>
            6.2001216411590576e-01 -1.9338719546794891e-01</leafValues></_>
        <_>
          <internalNodes>
            0 -1 168 1.9928351044654846e-02</internalNodes>
          <leafValues>
            2.3164695501327515e-01 -6.7884206771850586e-01</leafValues></_>
        <_>
          <internalNodes>
            0 -1 305 5.4294064284476917e-06</internalNodes>
          <leafValues>
            -3.1980633735656738e-01 4.1161325573921204e-01</leafValues></_>
        <_>
          <internalNodes>
            0 -1 305 -5.5627397159696557e-06</internalNodes>
          <leafValues>
            4.1529160737991333e-01 -2.9946959018707275e-01</leafValues></_>
        <_>
          <internalNodes>
            0 -1 297 -1.1937996745109558e-01</internalNodes>
          <leafValues>
            -6.5180045366287231e-01 2.2571426630020142e-01</leafValues></_>
        <_>
          <internalNodes>
            0 -1 126 1.0207774175796658e-04</internalNodes>
          <leafValues>
            -3.4285399317741394e-01 3.5756668448448181e-01</leafValues></_></weakClassifiers></_>
    <!-- stage 16 -->
    <_>
      <maxWeakCount>12</maxWeakCount>
      <stageThreshold>-9.9481552839279175e-01</stageThreshold>
      <weakClassifiers>
        <_>
          <internalNodes>
            0 -1 233 -1.2840867042541504e-01</internalNodes>
          <leafValues>
            -4.0697672963142395e-01 5.4687500000000000e-01</leafValues></_>
        <_>
          <internalNodes>
            0 -1 253 5.4673226550221443e-03</internalNodes>
          <leafValues>
            -2.5414189696311951e-01 4.6348771452903748e-01</leafValues></_>
        <_>
          <internalNodes>
            0 -1 210 -2.5103017687797546e-01</internalNodes>
          <leafValues>
            -2.7960288524627686e-01 3.1129834055900574e-01</leafValues></_>
        <_>
          <internalNodes>
            0 -1 321 -8.6416679550893605e-05</internalNodes>
          <leafValues>
            5.5465680360794067e-01 -2.1957094967365265e-01</leafValues></_>
        <_>
          <internalNodes>
            0 -1 132 -1.6433428972959518e-03</internalNodes>
          <leafValues>
            -5.3215372562408447e-01 2.2262728214263916e-01</leafValues></_>
        <_>
          <internalNodes>
            0 -1 276 -2.0078317902516574e-05</internalNodes>
          <leafValues>
            4.0567305684089661e-01 -2.6123651862144470e-01</leafValues></_>
        <_>
          <internalNodes>
            0 -1 143 5.8097881264984608e-04</internalNodes>
          <leafValues>
            1.8088288605213165e-01 -5.6943929195404053e-01</leafValues></_>
        <_>
          <internalNodes>
            0 -1 375 -2.9001948860241100e-06</internalNodes>
          <leafValues>
            4.1325861215591431e-01 -2.4607202410697937e-01</leafValues></_>
        <_>
          <internalNodes>
            0 -1 86 -9.7290606936439872e-04</internalNodes>
          <leafValues>
            -8.5698872804641724e-01 1.0236772149801254e-01</leafValues></_>
        <_>
          <internalNodes>
            0 -1 131 2.7843689167639241e-06</internalNodes>
          <leafValues>
            -2.7610099315643311e-01 3.9859423041343689e-01</leafValues></_>
        <_>
          <internalNodes>
            0 -1 326 -5.4376944899559021e-04</internalNodes>
          <leafValues>
            -6.5202409029006958e-01 1.7834384739398956e-01</leafValues></_>
        <_>
          <internalNodes>
            0 -1 337 1.1720600741682574e-04</internalNodes>
          <leafValues>
            -3.3852568268775940e-01 3.2406675815582275e-01</leafValues></_></weakClassifiers></_>
    <!-- stage 17 -->
    <_>
      <maxWeakCount>12</maxWeakCount>
      <stageThreshold>-9.1742014884948730e-01</stageThreshold>
      <weakClassifiers>
        <_>
          <internalNodes>
            0 -1 209 1.7171463696286082e-04</internalNodes>
          <leafValues>
            -2.0629921555519104e-01 4.9433961510658264e-01</leafValues></_>
        <_>
          <internalNodes>
            0 -1 93 -8.8289245963096619e-02</internalNodes>
          <leafValues>
            5.3565913438796997e-01 -1.6919466853141785e-01</leafValues></_>
        <_>
          <internalNodes>
            0 -1 61 2.1028216928243637e-02</internalNodes>
          <leafValues>
            -1.5443377196788788e-01 6.4664369821548462e-01</leafValues></_>
        <_>
          <internalNodes>
            0 -1 73 5.6006374506978318e-06</internalNodes>
          <leafValues>
            -2.1510306000709534e-01 4.1421934962272644e-01</leafValues></_>
        <_>
          <internalNodes>
            0 -1 330 -3.3298456401098520e-06</internalNodes>
          <leafValues>
            2.7465251088142395e-01 -3.0469387769699097e-01</leafValues></_>
        <_>
          <internalNodes>
            0 -1 198 -3.7395691033452749e-03</internalNodes>
          <leafValues>
            -6.0399520397186279e-01 1.6480952501296997e-01</leafValues></_>
        <_>
          <internalNodes>
            0 -1 136 -8.6994394659996033e-03</internalNodes>
          <leafValues>
            5.6301045417785645e-01 -1.7128653824329376e-01</leafValues></_>
        <_>
          <internalNodes>
            0 -1 76 -5.8950451202690601e-03</internalNodes>
          <leafValues>
            -8.6575800180435181e-01 1.4443869888782501e-01</leafValues></_>
        <_>
          <internalNodes>
            0 -1 163 -2.3370537906885147e-02</internalNodes>
          <leafValues>
            5.0468122959136963e-01 -2.2163523733615875e-01</leafValues></_>
        <_>
          <internalNodes>
            0 -1 243 6.3200313597917557e-03</internalNodes>
          <leafValues>
            -2.1850134432315826e-01 4.4218882918357849e-01</leafValues></_>
        <_>
          <internalNodes>
            0 -1 62 -1.4663711190223694e-02</internalNodes>
          <leafValues>
            5.2190107107162476e-01 -1.6114318370819092e-01</leafValues></_>
        <_>
          <internalNodes>
            0 -1 216 4.3679840862751007e-02</internalNodes>
          <leafValues>
            -8.7421722710132599e-02 9.2706394195556641e-01</leafValues></_></weakClassifiers></_>
    <!-- stage 18 -->
    <_>
      <maxWeakCount>16</maxWeakCount>
      <stageThreshold>-9.1391700506210327e-01</stageThreshold>
      <weakClassifiers>
        <_>
          <internalNodes>
            0 -1 262 1.1187689378857613e-02</internalNodes>
          <leafValues>
            -2.3529411852359772e-01 4.2236024141311646e-01</leafValues></_>
        <_>
          <internalNodes>
            0 -1 170 -6.3388654962182045e-04</internalNodes>
          <leafValues>
            4.1488146781921387e-01 -1.8510328233242035e-01</leafValues></_>
        <_>
          <internalNodes>
            0 -1 177 -8.2539125287439674e-05</internalNodes>
          <leafValues>
            3.9600813388824463e-01 -2.1124841272830963e-01</leafValues></_>
        <_>
          <internalNodes>
            0 -1 69 4.5519479317590594e-04</internalNodes>
          <leafValues>
            1.4333473145961761e-01 -7.3893237113952637e-01</leafValues></_>
        <_>
          <internalNodes>
            0 -1 335 1.3634920833283104e-05</internalNodes>
          <leafValues>
            -2.9352104663848877e-01 2.4497333168983459e-01</leafValues></_>
        <_>
          <internalNodes>
            0 -1 22 -2.9786786064505577e-02</internalNodes>
          <leafValues>
            5.0060397386550903e-01 -1.6581921279430389e-01</leafValues></_>
        <_>
          <internalNodes>
            0 -1 348 -3.6099486052989960e-02</internalNodes>
          <leafValues>
            6.5939068794250488e-01 -1.3538520038127899e-01</leafValues></_>
        <_>
          <internalNodes>
            0 -1 165 -4.6008502249605954e-04</internalNodes>
          <leafValues>
            -7.9902285337448120e-01 1.1570852994918823e-01</leafValues></_>
        <_>
          <internalNodes>
            0 -1 102 -3.4351670183241367e-04</internalNodes>
          <leafValues>
            4.9184480309486389e-01 -1.9231665134429932e-01</leafValues></_>
        <_>
          <internalNodes>
            0 -1 164 -2.0497823134064674e-03</internalNodes>
          <leafValues>
            3.0261847376823425e-01 -2.9034170508384705e-01</leafValues></_>
        <_>
          <internalNodes>
            0 -1 365 -9.1082938015460968e-03</internalNodes>
          <leafValues>
            5.2618622779846191e-01 -1.6074520349502563e-01</leafValues></_>
        <_>
          <internalNodes>
            0 -1 277 -1.2119732855353504e-04</internalNodes>
          <leafValues>
            -5.9181195497512817e-01 1.7524072527885437e-01</leafValues></_>
        <_>
          <internalNodes>
            0 -1 113 2.9567477758973837e-04</internalNodes>
          <leafValues>
            -2.1643857657909393e-01 3.7595763802528381e-01</leafValues></_>
        <_>
          <internalNodes>
            0 -1 79 5.7777324691414833e-03</internalNodes>
          <leafValues>
            1.2162457406520844e-01 -8.1501698493957520e-01</leafValues></_>
        <_>
          <internalNodes>
            0 -1 292 1.5489635989069939e-02</internalNodes>
          <leafValues>
            -2.0002764463424683e-01 4.7184962034225464e-01</leafValues></_>
        <_>
          <internalNodes>
            0 -1 268 6.7241275683045387e-03</internalNodes>
          <leafValues>
            -1.6068552434444427e-01 5.5871474742889404e-01</leafValues></_></weakClassifiers></_>
    <!-- stage 19 -->
    <_>
      <maxWeakCount>17</maxWeakCount>
      <stageThreshold>-9.1409015655517578e-01</stageThreshold>
      <weakClassifiers>
        <_>
          <internalNodes>
            0 -1 192 -7.2251596066053025e-06</internalNodes>
          <leafValues>
            2.8251120448112488e-01 -2.7753305435180664e-01</leafValues></_>
        <_>
          <internalNodes>
            0 -1 129 -9.5058940351009369e-03</internalNodes>
          <leafValues>
            -2.1994930505752563e-01 3.4808635711669922e-01</leafValues></_>
        <_>
          <internalNodes>
            0 -1 44 1.6729703173041344e-02</internalNodes>
          <leafValues>
            8.9508384466171265e-02 -8.0490028858184814e-01</leafValues></_>
        <_>
          <internalNodes>
            0 -1 116 -1.2703621760010719e-03</internalNodes>
          <leafValues>
            -9.3064576387405396e-01 1.0288256406784058e-01</leafValues></_>
        <_>
          <internalNodes>
            0 -1 15 -6.7323371767997742e-02</internalNodes>
          <leafValues>
            6.6237008571624756e-01 -1.5218921005725861e-01</leafValues></_>
        <_>
          <internalNodes>
            0 -1 303 3.1912606209516525e-04</internalNodes>
          <leafValues>
            -1.7466592788696289e-01 4.3739020824432373e-01</leafValues></_>
        <_>
          <internalNodes>
            0 -1 258 -1.9803011673502624e-04</internalNodes>
          <leafValues>
            -5.6192278861999512e-01 1.2108786404132843e-01</leafValues></_>
        <_>
          <internalNodes>
            0 -1 2 1.7357215285301208e-02</internalNodes>
          <leafValues>
            -1.6949017345905304e-01 4.4671514630317688e-01</leafValues></_>
        <_>
          <internalNodes>
            0 -1 38 -1.9801366142928600e-03</internalNodes>
          <leafValues>
            4.1909664869308472e-01 -1.9045865535736084e-01</leafValues></_>
        <_>
          <internalNodes>
            0 -1 225 2.3440062999725342e-02</internalNodes>
          <leafValues>
            -1.8039189279079437e-01 4.4419354200363159e-01</leafValues></_>
        <_>
          <internalNodes>
            0 -1 149 -1.0164704872295260e-03</internalNodes>
          <leafValues>
            -7.5769758224487305e-01 1.0653017461299896e-01</leafValues></_>
        <_>
          <internalNodes>
            0 -1 298 6.8446934164967388e-06</internalNodes>
          <leafValues>
            -2.7596649527549744e-01 2.9651346802711487e-01</leafValues></_>
        <_>
          <internalNodes>
            0 -1 183 -4.5867329463362694e-03</internalNodes>
          <leafValues>
            -6.5737617015838623e-01 1.3607989251613617e-01</leafValues></_>
        <_>
          <internalNodes>
            0 -1 236 -8.6148007540032268e-04</internalNodes>
          <leafValues>
            5.5556988716125488e-01 -1.7137962579727173e-01</leafValues></_>
        <_>
          <internalNodes>
            0 -1 343 2.7724582701921463e-02</internalNodes>
          <leafValues>
            -1.0523553192615509e-01 6.7367619276046753e-01</leafValues></_>
        <_>
          <internalNodes>
            0 -1 32 3.2447166740894318e-02</internalNodes>
          <leafValues>
            -9.3767985701560974e-02 7.2716951370239258e-01</leafValues></_>
        <_>
          <internalNodes>
            0 -1 92 -3.5538643714971840e-04</internalNodes>
          <leafValues>
            -5.2072089910507202e-01 1.5771174430847168e-01</leafValues></_></weakClassifiers></_>
    <!-- stage 20 -->
    <_>
      <maxWeakCount>16</maxWeakCount>
      <stageThreshold>-8.2102751731872559e-01</stageThreshold>
      <weakClassifiers>
        <_>
          <internalNodes>
            0 -1 220 3.7753704236820340e-04</internalNodes>
          <leafValues>
            -1.7378048598766327e-01 4.6721312403678894e-01</leafValues></_>
        <_>
          <internalNodes>
            0 -1 250 2.4428047239780426e-02</internalNodes>
          <leafValues>
            -1.2986791133880615e-01 5.8749991655349731e-01</leafValues></_>
        <_>
          <internalNodes>
            0 -1 295 -1.4672627730760723e-04</internalNodes>
          <leafValues>
            -7.0070433616638184e-01 1.0308420658111572e-01</leafValues></_>
        <_>
          <internalNodes>
            0 -1 7 3.0243154615163803e-02</internalNodes>
          <leafValues>
            -1.1697694659233093e-01 5.8596217632293701e-01</leafValues></_>
        <_>
          <internalNodes>
            0 -1 91 3.2499379012733698e-03</internalNodes>
          <leafValues>
            9.2539206147193909e-02 -7.4844110012054443e-01</leafValues></_>
        <_>
          <internalNodes>
            0 -1 125 5.6293019952136092e-06</internalNodes>
          <leafValues>
            -3.2132968306541443e-01 2.2311340272426605e-01</leafValues></_>
        <_>
          <internalNodes>
            0 -1 244 2.0649986981879920e-04</internalNodes>
          <leafValues>
            1.8687608838081360e-01 -4.6575424075126648e-01</leafValues></_>
        <_>
          <internalNodes>
            0 -1 351 -5.8464020185056143e-06</internalNodes>
          <leafValues>
            3.6840751767158508e-01 -2.0478822290897369e-01</leafValues></_>
        <_>
          <internalNodes>
            0 -1 130 9.4613224064232782e-06</internalNodes>
          <leafValues>
            -3.2846188545227051e-01 2.3726198077201843e-01</leafValues></_>
        <_>
          <internalNodes>
            0 -1 245 6.6701313699013554e-06</internalNodes>
          <leafValues>
            -2.7320817112922668e-01 2.6162520051002502e-01</leafValues></_>
        <_>
          <internalNodes>
            0 -1 42 1.8257526680827141e-03</internalNodes>
          <leafValues>
            9.9948763847351074e-02 -8.3307248353958130e-01</leafValues></_>
        <_>
          <internalNodes>
            0 -1 101 1.7870510055217892e-04</internalNodes>
          <leafValues>
            -2.4616089463233948e-01 3.2228848338127136e-01</leafValues></_>
        <_>
          <internalNodes>
            0 -1 240 -1.1322160065174103e-01</internalNodes>
          <leafValues>
            -3.4376204013824463e-01 2.2237692773342133e-01</leafValues></_>
        <_>
          <internalNodes>
            0 -1 221 1.0225918958894908e-04</internalNodes>
          <leafValues>
            -1.3812272250652313e-01 5.8498835563659668e-01</leafValues></_>
        <_>
          <internalNodes>
            0 -1 257 4.1774276178330183e-04</internalNodes>
          <leafValues>
            1.0791044682264328e-01 -7.4541026353836060e-01</leafValues></_>
        <_>
          <internalNodes>
            0 -1 206 7.7985448297113180e-04</internalNodes>
          <leafValues>
            9.9755585193634033e-02 -7.1966892480850220e-01</leafValues></_></weakClassifiers></_>
    <!-- stage 21 -->
    <_>
      <maxWeakCount>20</maxWeakCount>
      <stageThreshold>-9.1150814294815063e-01</stageThreshold>
      <weakClassifiers>
        <_>
          <internalNodes>
            0 -1 310 -2.0104676950722933e-03</internalNodes>
          <leafValues>
            5.2195119857788086e-01 -1.5395683050155640e-01</leafValues></_>
        <_>
          <internalNodes>
            0 -1 80 -1.5662707388401031e-02</internalNodes>
          <leafValues>
            -5.6597518920898438e-01 1.3620695471763611e-01</leafValues></_>
        <_>
          <internalNodes>
            0 -1 161 2.2544333478435874e-04</internalNodes>
          <leafValues>
            -1.3160723447799683e-01 4.7783911228179932e-01</leafValues></_>
        <_>
          <internalNodes>
            0 -1 55 2.5750173255801201e-02</internalNodes>
          <leafValues>
            -1.9982659816741943e-01 3.8840940594673157e-01</leafValues></_>
        <_>
          <internalNodes>
            0 -1 140 -9.1179419541731477e-05</internalNodes>
          <leafValues>
            3.6310422420501709e-01 -1.9743514060974121e-01</leafValues></_>
        <_>
          <internalNodes>
            0 -1 0 -5.5340185761451721e-02</internalNodes>
          <leafValues>
            6.6221791505813599e-01 -1.2350676953792572e-01</leafValues></_>
        <_>
          <internalNodes>
            0 -1 214 4.1998036205768585e-02</internalNodes>
          <leafValues>
            -1.4019806683063507e-01 4.9472647905349731e-01</leafValues></_>
        <_>
          <internalNodes>
            0 -1 235 5.8254241943359375e-02</internalNodes>
          <leafValues>
            -1.3808885216712952e-01 6.6036528348922729e-01</leafValues></_>
        <_>
          <internalNodes>
            0 -1 34 1.5739521477371454e-03</internalNodes>
          <leafValues>
            1.6578894853591919e-01 -6.2224018573760986e-01</leafValues></_>
        <_>
          <internalNodes>
            0 -1 316 7.4366566877870355e-06</internalNodes>
          <leafValues>
            -2.9749080538749695e-01 2.6179203391075134e-01</leafValues></_>
        <_>
          <internalNodes>
            0 -1 217 2.5293398648500443e-03</internalNodes>
          <leafValues>
            8.9829601347446442e-02 -8.4118121862411499e-01</leafValues></_>
        <_>
          <internalNodes>
            0 -1 146 3.2581676350673661e-05</internalNodes>
          <leafValues>
            -2.1478463709354401e-01 3.3612832427024841e-01</leafValues></_>
        <_>
          <internalNodes>
            0 -1 376 1.4573649968951941e-04</internalNodes>
          <leafValues>
            1.2023048102855682e-01 -7.1753567457199097e-01</leafValues></_>
        <_>
          <internalNodes>
            0 -1 321 -1.2556520232465118e-04</internalNodes>
          <leafValues>
            5.6402009725570679e-01 -1.5073588490486145e-01</leafValues></_>
        <_>
          <internalNodes>
            0 -1 238 -4.0537939639762044e-04</internalNodes>
          <leafValues>
            -8.4299522638320923e-01 1.1925893276929855e-01</leafValues></_>
        <_>
          <internalNodes>
            0 -1 325 -6.3502448028884828e-05</internalNodes>
          <leafValues>
            4.4144049286842346e-01 -1.9496430456638336e-01</leafValues></_>
        <_>
          <internalNodes>
            0 -1 24 -1.0634378530085087e-02</internalNodes>
          <leafValues>
            -9.0011888742446899e-01 7.9927839338779449e-02</leafValues></_>
        <_>
          <internalNodes>
            0 -1 332 1.4407263370230794e-03</internalNodes>
          <leafValues>
            1.2661746144294739e-01 -5.3761440515518188e-01</leafValues></_>
        <_>
          <internalNodes>
            0 -1 307 5.9195952489972115e-03</internalNodes>
          <leafValues>
            6.4112745225429535e-02 -9.8566818237304688e-01</leafValues></_>
        <_>
          <internalNodes>
            0 -1 284 -7.6643536885967478e-06</internalNodes>
          <leafValues>
            2.3280656337738037e-01 -3.0404826998710632e-01</leafValues></_></weakClassifiers></_>
    <!-- stage 22 -->
    <_>
      <maxWeakCount>15</maxWeakCount>
      <stageThreshold>-7.9964411258697510e-01</stageThreshold>
      <weakClassifiers>
        <_>
          <internalNodes>
            0 -1 39 -2.0520793274044991e-02</internalNodes>
          <leafValues>
            -4.4398340582847595e-01 1.6236722469329834e-01</leafValues></_>
        <_>
          <internalNodes>
            0 -1 306 -1.2478900316637009e-05</internalNodes>
          <leafValues>
            2.4851997196674347e-01 -2.6387876272201538e-01</leafValues></_>
        <_>
          <internalNodes>
            0 -1 90 2.2283470258116722e-02</internalNodes>
          <leafValues>
            1.2808869779109955e-01 -5.2794176340103149e-01</leafValues></_>
        <_>
          <internalNodes>
            0 -1 317 -1.4176699332892895e-03</internalNodes>
          <leafValues>
            -8.2350575923919678e-01 9.5391154289245605e-02</leafValues></_>
        <_>
          <internalNodes>
            0 -1 239 4.0817295666784048e-04</internalNodes>
          <leafValues>
            1.0499736666679382e-01 -6.2566351890563965e-01</leafValues></_>
        <_>
          <internalNodes>
            0 -1 135 -4.8041634727269411e-04</internalNodes>
          <leafValues>
            3.0154412984848022e-01 -2.6284191012382507e-01</leafValues></_>
        <_>
          <internalNodes>
            0 -1 145 -7.8912407159805298e-02</internalNodes>
          <leafValues>
            6.9695472717285156e-01 -1.2850147485733032e-01</leafValues></_>
        <_>
          <internalNodes>
            0 -1 103 7.0130248786881566e-04</internalNodes>
          <leafValues>
            1.1189363896846771e-01 -6.9941186904907227e-01</leafValues></_>
        <_>
          <internalNodes>
            0 -1 67 -4.7089601866900921e-03</internalNodes>
          <leafValues>
            4.4934856891632080e-01 -1.8210721015930176e-01</leafValues></_>
        <_>
          <internalNodes>
            0 -1 366 3.7887672078795731e-04</internalNodes>
          <leafValues>
            -2.3054838180541992e-01 3.4228655695915222e-01</leafValues></_>
        <_>
          <internalNodes>
            0 -1 84 5.3775984270032495e-06</internalNodes>
          <leafValues>
            -2.6139166951179504e-01 2.8266233205795288e-01</leafValues></_>
        <_>
          <internalNodes>
            0 -1 36 -8.3256317302584648e-03</internalNodes>
          <leafValues>
            4.1955783963203430e-01 -1.9433897733688354e-01</leafValues></_>
        <_>
          <internalNodes>
            0 -1 242 3.1062946654856205e-03</internalNodes>
          <leafValues>
            -1.7871597409248352e-01 4.1358962655067444e-01</leafValues></_>
        <_>
          <internalNodes>
            0 -1 255 -1.1494476348161697e-03</internalNodes>
          <leafValues>
            -6.7000865936279297e-01 1.3606463372707367e-01</leafValues></_>
        <_>
          <internalNodes>
            0 -1 318 1.9438109302427620e-04</internalNodes>
          <leafValues>
            -1.1994976550340652e-01 7.0780783891677856e-01</leafValues></_></weakClassifiers></_>
    <!-- stage 23 -->
    <_>
      <maxWeakCount>16</maxWeakCount>
      <stageThreshold>-8.9647120237350464e-01</stageThreshold>
      <weakClassifiers>
        <_>
          <internalNodes>
            0 -1 45 -2.0676027983427048e-02</internalNodes>
          <leafValues>
            -5.8282208442687988e-01 1.2890094518661499e-01</leafValues></_>
        <_>
          <internalNodes>
            0 -1 9 -5.8666650205850601e-02</internalNodes>
          <leafValues>
            5.2920544147491455e-01 -1.3895703852176666e-01</leafValues></_>
        <_>
          <internalNodes>
            0 -1 208 -5.5395304225385189e-03</internalNodes>
          <leafValues>
            5.6186628341674805e-01 -1.2417668104171753e-01</leafValues></_>
        <_>
          <internalNodes>
            0 -1 118 1.1626136302947998e-01</internalNodes>
          <leafValues>
            -8.7346442043781281e-02 8.7113362550735474e-01</leafValues></_>
        <_>
          <internalNodes>
            0 -1 293 -1.6467258334159851e-02</internalNodes>
          <leafValues>
            5.8081150054931641e-01 -1.1133614182472229e-01</leafValues></_>
        <_>
          <internalNodes>
            0 -1 193 -2.4506598128937185e-04</internalNodes>
          <leafValues>
            -6.9393599033355713e-01 1.1173848062753677e-01</leafValues></_>
        <_>
          <internalNodes>
            0 -1 23 4.4884346425533295e-02</internalNodes>
          <leafValues>
            -1.5257233381271362e-01 6.0907071828842163e-01</leafValues></_>
        <_>
          <internalNodes>
            0 -1 110 -1.1356633156538010e-02</internalNodes>
          <leafValues>
            -8.8465732336044312e-01 1.3180814683437347e-01</leafValues></_>
        <_>
          <internalNodes>
            0 -1 133 4.2323622619733214e-04</internalNodes>
          <leafValues>
            -2.9197573661804199e-01 2.8769612312316895e-01</leafValues></_>
        <_>
          <internalNodes>
            0 -1 54 -1.3256845995783806e-02</internalNodes>
          <leafValues>
            -9.4397532939910889e-01 7.6128251850605011e-02</leafValues></_>
        <_>
          <internalNodes>
            0 -1 29 1.5625033527612686e-02</internalNodes>
          <leafValues>
            -2.1131750941276550e-01 3.5513129830360413e-01</leafValues></_>
        <_>
          <internalNodes>
            0 -1 108 4.6643009409308434e-04</internalNodes>
          <leafValues>
            1.3295207917690277e-01 -6.2736475467681885e-01</leafValues></_>
        <_>
          <internalNodes>
            0 -1 77 -2.2598530631512403e-03</internalNodes>
          <leafValues>
            3.0017584562301636e-01 -2.8828492760658264e-01</leafValues></_>
        <_>
          <internalNodes>
            0 -1 364 5.3575757192447782e-04</internalNodes>
          <leafValues>
            1.1699464172124863e-01 -6.5146809816360474e-01</leafValues></_>
        <_>
          <internalNodes>
            0 -1 178 1.4793995069339871e-03</internalNodes>
          <leafValues>
            -1.4905264973640442e-01 5.2662742137908936e-01</leafValues></_>
        <_>
          <internalNodes>
            0 -1 286 9.5332931960001588e-04</internalNodes>
          <leafValues>
            -1.6500382125377655e-01 4.4979244470596313e-01</leafValues></_></weakClassifiers></_>
    <!-- stage 24 -->
    <_>
      <maxWeakCount>17</maxWeakCount>
      <stageThreshold>-7.8766602277755737e-01</stageThreshold>
      <weakClassifiers>
        <_>
          <internalNodes>
            0 -1 287 5.3422915516421199e-04</internalNodes>
          <leafValues>
            -2.0629370212554932e-01 3.5975611209869385e-01</leafValues></_>
        <_>
          <internalNodes>
            0 -1 105 -5.2420276915654540e-04</internalNodes>
          <leafValues>
            4.4993478059768677e-01 -1.6273863613605499e-01</leafValues></_>
        <_>
          <internalNodes>
            0 -1 96 -1.7294422723352909e-03</internalNodes>
          <leafValues>
            -9.0291303396224976e-01 4.1159659624099731e-02</leafValues></_>
        <_>
          <internalNodes>
            0 -1 35 1.0698506957851350e-04</internalNodes>
          <leafValues>
            1.2997812032699585e-01 -6.6667044162750244e-01</leafValues></_>
        <_>
          <internalNodes>
            0 -1 122 -7.2997636380023323e-06</internalNodes>
          <leafValues>
            3.0089500546455383e-01 -2.2482812404632568e-01</leafValues></_>
        <_>
          <internalNodes>
            0 -1 83 2.7527756174094975e-05</internalNodes>
          <leafValues>
            -2.3144792020320892e-01 3.0204060673713684e-01</leafValues></_>
        <_>
          <internalNodes>
            0 -1 331 7.4121753641520627e-06</internalNodes>
          <leafValues>
            -2.5755783915519714e-01 2.6365533471107483e-01</leafValues></_>
        <_>
          <internalNodes>
            0 -1 228 -1.0992826893925667e-02</internalNodes>
          <leafValues>
            3.7462165951728821e-01 -1.8817044794559479e-01</leafValues></_>
        <_>
          <internalNodes>
            0 -1 48 -2.8874080628156662e-02</internalNodes>
          <leafValues>
            4.7834265232086182e-01 -1.5589997172355652e-01</leafValues></_>
        <_>
          <internalNodes>
            0 -1 202 -1.6981728840619326e-03</internalNodes>
          <leafValues>
            -5.5147629976272583e-01 1.6064448654651642e-01</leafValues></_>
        <_>
          <internalNodes>
            0 -1 64 5.7808861129160505e-06</internalNodes>
          <leafValues>
            -3.2294580340385437e-01 2.4566330015659332e-01</leafValues></_>
        <_>
          <internalNodes>
            0 -1 248 -1.3276609024615027e-05</internalNodes>
          <leafValues>
            3.5531121492385864e-01 -2.1488858759403229e-01</leafValues></_>
        <_>
          <internalNodes>
            0 -1 199 -5.2695139311254025e-04</internalNodes>
          <leafValues>
            -7.6843363046646118e-01 1.0966856777667999e-01</leafValues></_>
        <_>
          <internalNodes>
            0 -1 232 -3.5353575367480516e-04</internalNodes>
          <leafValues>
            -6.5954649448394775e-01 9.2840917408466339e-02</leafValues></_>
        <_>
          <internalNodes>
            0 -1 345 5.6713484227657318e-03</internalNodes>
          <leafValues>
            6.7790910601615906e-02 -7.5578266382217407e-01</leafValues></_>
        <_>
          <internalNodes>
            0 -1 308 -4.8892521299421787e-03</internalNodes>
          <leafValues>
            5.1291507482528687e-01 -1.4857380092144012e-01</leafValues></_>
        <_>
          <internalNodes>
            0 -1 124 9.5354700461030006e-03</internalNodes>
          <leafValues>
            -1.7726914584636688e-01 4.4097596406936646e-01</leafValues></_></weakClassifiers></_>
    <!-- stage 25 -->
    <_>
      <maxWeakCount>16</maxWeakCount>
      <stageThreshold>-8.3048731088638306e-01</stageThreshold>
      <weakClassifiers>
        <_>
          <internalNodes>
            0 -1 222 -1.2176299933344126e-03</internalNodes>
          <leafValues>
            5.0467288494110107e-01 -1.5743440389633179e-01</leafValues></_>
        <_>
          <internalNodes>
            0 -1 272 -2.4007406318560243e-04</internalNodes>
          <leafValues>
            4.4794127345085144e-01 -1.6467057168483734e-01</leafValues></_>
        <_>
          <internalNodes>
            0 -1 4 -5.3120307624340057e-02</internalNodes>
          <leafValues>
            8.1693559885025024e-01 -1.2112820148468018e-01</leafValues></_>
        <_>
          <internalNodes>
            0 -1 95 4.7884223749861121e-04</internalNodes>
          <leafValues>
            1.1237869411706924e-01 -7.0340400934219360e-01</leafValues></_>
        <_>
          <internalNodes>
            0 -1 137 8.5336090705823153e-05</internalNodes>
          <leafValues>
            -1.0501970350742340e-01 5.6919449567794800e-01</leafValues></_>
        <_>
          <internalNodes>
            0 -1 18 6.6334230359643698e-04</internalNodes>
          <leafValues>
            7.9466104507446289e-02 -8.6357361078262329e-01</leafValues></_>
        <_>
          <internalNodes>
            0 -1 207 1.2629966950044036e-03</internalNodes>
          <leafValues>
            -1.5165521204471588e-01 6.0780447721481323e-01</leafValues></_>
        <_>
          <internalNodes>
            0 -1 30 4.9647919833660126e-02</internalNodes>
          <leafValues>
            1.0435599088668823e-01 -8.0629998445510864e-01</leafValues></_>
        <_>
          <internalNodes>
            0 -1 60 5.8537075346976053e-06</internalNodes>
          <leafValues>
            -2.0862671732902527e-01 3.2795754075050354e-01</leafValues></_>
        <_>
          <internalNodes>
            0 -1 179 6.9218367571011186e-06</internalNodes>
          <leafValues>
            -2.6176223158836365e-01 2.5753027200698853e-01</leafValues></_>
        <_>
          <internalNodes>
            0 -1 212 -4.8301886999979615e-04</internalNodes>
          <leafValues>
            -6.7474955320358276e-01 1.1007865518331528e-01</leafValues></_>
        <_>
          <internalNodes>
            0 -1 371 -2.4750528973527253e-04</internalNodes>
          <leafValues>
            -8.0594420433044434e-01 7.6095946133136749e-02</leafValues></_>
        <_>
          <internalNodes>
            0 -1 319 8.0648669973015785e-04</internalNodes>
          <leafValues>
            -1.4518581330776215e-01 5.5727195739746094e-01</leafValues></_>
        <_>
          <internalNodes>
            0 -1 289 3.6761595401912928e-04</internalNodes>
          <leafValues>
            1.1182971298694611e-01 -5.8959937095642090e-01</leafValues></_>
        <_>
          <internalNodes>
            0 -1 280 -5.3404283244162798e-04</internalNodes>
          <leafValues>
            3.7967178225517273e-01 -1.9617554545402527e-01</leafValues></_>
        <_>
          <internalNodes>
            0 -1 322 4.8271984269376844e-05</internalNodes>
          <leafValues>
            -1.7284016311168671e-01 4.1030070185661316e-01</leafValues></_></weakClassifiers></_>
    <!-- stage 26 -->
    <_>
      <maxWeakCount>19</maxWeakCount>
      <stageThreshold>-7.7390503883361816e-01</stageThreshold>
      <weakClassifiers>
        <_>
          <internalNodes>
            0 -1 200 6.9884976255707443e-05</internalNodes>
          <leafValues>
            -1.4285714924335480e-01 5.2331608533859253e-01</leafValues></_>
        <_>
          <internalNodes>
            0 -1 139 1.2419150152709335e-04</internalNodes>
          <leafValues>
            -9.6058569848537445e-02 6.4904808998107910e-01</leafValues></_>
        <_>
          <internalNodes>
            0 -1 106 -6.1019249260425568e-03</internalNodes>
          <leafValues>
            -7.4576967954635620e-01 8.8625237345695496e-02</leafValues></_>
        <_>
          <internalNodes>
            0 -1 40 -1.4309056103229523e-02</internalNodes>
          <leafValues>
            5.9395474195480347e-01 -1.0991872102022171e-01</leafValues></_>
        <_>
          <internalNodes>
            0 -1 324 -2.1799504756927490e-03</internalNodes>
          <leafValues>
            3.7009361386299133e-01 -2.0488423109054565e-01</leafValues></_>
        <_>
          <internalNodes>
            0 -1 139 -3.2573385396972299e-05</internalNodes>
          <leafValues>
            3.0699276924133301e-01 -2.2744546830654144e-01</leafValues></_>
        <_>
          <internalNodes>
            0 -1 28 -3.6630607210099697e-03</internalNodes>
          <leafValues>
            -7.0770627260208130e-01 1.0133352875709534e-01</leafValues></_>
        <_>
          <internalNodes>
            0 -1 195 -1.0161790996789932e-03</internalNodes>
          <leafValues>
            -4.7149607539176941e-01 1.4137220382690430e-01</leafValues></_>
        <_>
          <internalNodes>
            0 -1 171 1.7852966266218573e-05</internalNodes>
          <leafValues>
            -2.3739787936210632e-01 3.0020934343338013e-01</leafValues></_>
        <_>
          <internalNodes>
            0 -1 259 -2.9299758374691010e-02</internalNodes>
          <leafValues>
            5.0011301040649414e-01 -1.3126341998577118e-01</leafValues></_>
        <_>
          <internalNodes>
            0 -1 299 -8.6849350482225418e-03</internalNodes>
          <leafValues>
            -6.8697434663772583e-01 1.2025660276412964e-01</leafValues></_>
        <_>
          <internalNodes>
            0 -1 188 -2.7496000984683633e-04</internalNodes>
          <leafValues>
            4.7006303071975708e-01 -1.5687783062458038e-01</leafValues></_>
        <_>
          <internalNodes>
            0 -1 333 -1.7262363107874990e-03</internalNodes>
          <leafValues>
            3.4315526485443115e-01 -2.0564205944538116e-01</leafValues></_>
        <_>
          <internalNodes>
            0 -1 185 7.9548230860382318e-04</internalNodes>
          <leafValues>
            1.0296659171581268e-01 -6.6134732961654663e-01</leafValues></_>
        <_>
          <internalNodes>
            0 -1 355 -2.1373443305492401e-02</internalNodes>
          <leafValues>
            5.7220983505249023e-01 -1.3359680771827698e-01</leafValues></_>
        <_>
          <internalNodes>
            0 -1 360 1.7636086558923125e-03</internalNodes>
          <leafValues>
            -1.6914401948451996e-01 4.6501731872558594e-01</leafValues></_>
        <_>
          <internalNodes>
            0 -1 37 -2.7688877253240207e-06</internalNodes>
          <leafValues>
            2.8702706098556519e-01 -2.5829997658729553e-01</leafValues></_>
        <_>
          <internalNodes>
            0 -1 162 -1.5259183011949062e-02</internalNodes>
          <leafValues>
            3.9280635118484497e-01 -1.8123668432235718e-01</leafValues></_>
        <_>
          <internalNodes>
            0 -1 211 1.2101606698706746e-03</internalNodes>
          <leafValues>
            -1.2141569703817368e-01 6.2426632642745972e-01</leafValues></_></weakClassifiers></_>
    <!-- stage 27 -->
    <_>
      <maxWeakCount>17</maxWeakCount>
      <stageThreshold>-8.7017196416854858e-01</stageThreshold>
      <weakClassifiers>
        <_>
          <internalNodes>
            0 -1 229 -1.7454810440540314e-02</internalNodes>
          <leafValues>
            -5.9259259700775146e-01 1.3008129596710205e-01</leafValues></_>
        <_>
          <internalNodes>
            0 -1 302 2.8656297945417464e-04</internalNodes>
          <leafValues>
            -1.2981070578098297e-01 5.3664720058441162e-01</leafValues></_>
        <_>
          <internalNodes>
            0 -1 246 3.4052541013807058e-04</internalNodes>
          <leafValues>
            1.3933119177818298e-01 -5.1013714075088501e-01</leafValues></_>
        <_>
          <internalNodes>
            0 -1 201 -1.7219149740412831e-03</internalNodes>
          <leafValues>
            5.2922332286834717e-01 -1.4027868211269379e-01</leafValues></_>
        <_>
          <internalNodes>
            0 -1 249 -2.6605842867866158e-04</internalNodes>
          <leafValues>
            -7.9036140441894531e-01 7.6796092092990875e-02</leafValues></_>
        <_>
          <internalNodes>
            0 -1 25 -4.5682680793106556e-03</internalNodes>
          <leafValues>
            3.8625463843345642e-01 -1.8285259604454041e-01</leafValues></_>
        <_>
          <internalNodes>
            0 -1 112 -3.3092094236053526e-04</internalNodes>
          <leafValues>
            3.3931732177734375e-01 -2.3718425631523132e-01</leafValues></_>
        <_>
          <internalNodes>
            0 -1 283 -7.4494251748546958e-04</internalNodes>
          <leafValues>
            -8.3364111185073853e-01 1.2250191718339920e-01</leafValues></_>
        <_>
          <internalNodes>
            0 -1 285 -8.5446063167182729e-06</internalNodes>
          <leafValues>
            2.7979311347007751e-01 -2.5049117207527161e-01</leafValues></_>
        <_>
          <internalNodes>
            0 -1 274 5.9261335991322994e-04</internalNodes>
          <leafValues>
            -1.7458496987819672e-01 4.6851596236228943e-01</leafValues></_>
        <_>
          <internalNodes>
            0 -1 52 2.1031983196735382e-02</internalNodes>
          <leafValues>
            1.5440922975540161e-01 -6.6316312551498413e-01</leafValues></_>
        <_>
          <internalNodes>
            0 -1 169 -5.0064913928508759e-02</internalNodes>
          <leafValues>
            4.6940642595291138e-01 -2.0612870156764984e-01</leafValues></_>
        <_>
          <internalNodes>
            0 -1 313 -8.1541016697883606e-04</internalNodes>
          <leafValues>
            -6.3281238079071045e-01 1.3165211677551270e-01</leafValues></_>
        <_>
          <internalNodes>
            0 -1 300 4.3751206248998642e-05</internalNodes>
          <leafValues>
            -2.4874125421047211e-01 3.2547610998153687e-01</leafValues></_>
        <_>
          <internalNodes>
            0 -1 342 -6.7203538492321968e-04</internalNodes>
          <leafValues>
            -7.6583826541900635e-01 8.4732763469219208e-02</leafValues></_>
        <_>
          <internalNodes>
            0 -1 320 4.3715863284887746e-05</internalNodes>
          <leafValues>
            -2.3561483621597290e-01 3.5616615414619446e-01</leafValues></_>
        <_>
          <internalNodes>
            0 -1 346 -5.8064078984898515e-06</internalNodes>
          <leafValues>
            3.2132437825202942e-01 -2.3041400313377380e-01</leafValues></_></weakClassifiers></_>
    <!-- stage 28 -->
    <_>
      <maxWeakCount>18</maxWeakCount>
      <stageThreshold>-8.4483033418655396e-01</stageThreshold>
      <weakClassifiers>
        <_>
          <internalNodes>
            0 -1 341 -1.2541377218440175e-03</internalNodes>
          <leafValues>
            -7.8823530673980713e-01 8.2208588719367981e-02</leafValues></_>
        <_>
          <internalNodes>
            0 -1 205 4.4963747495785356e-04</internalNodes>
          <leafValues>
            -9.9141716957092285e-02 5.7273936271667480e-01</leafValues></_>
        <_>
          <internalNodes>
            0 -1 344 6.4362075136159547e-06</internalNodes>
          <leafValues>
            -2.4026107788085938e-01 2.5596085190773010e-01</leafValues></_>
        <_>
          <internalNodes>
            0 -1 121 -1.1391875147819519e-01</internalNodes>
          <leafValues>
            8.1830102205276489e-01 -1.2767596542835236e-01</leafValues></_>
        <_>
          <internalNodes>
            0 -1 94 4.6888060867786407e-02</internalNodes>
          <leafValues>
            -8.0817446112632751e-02 6.0642695426940918e-01</leafValues></_>
        <_>
          <internalNodes>
            0 -1 152 9.8635340691544116e-05</internalNodes>
          <leafValues>
            -1.4058281481266022e-01 4.4815069437026978e-01</leafValues></_>
        <_>
          <internalNodes>
            0 -1 53 -1.7764607910066843e-03</internalNodes>
          <leafValues>
            -7.7031850814819336e-01 1.0263404995203018e-01</leafValues></_>
        <_>
          <internalNodes>
            0 -1 227 6.5119156715809368e-06</internalNodes>
          <leafValues>
            -2.3667687177658081e-01 2.9903370141983032e-01</leafValues></_>
        <_>
          <internalNodes>
            0 -1 175 -4.7348483349196613e-04</internalNodes>
          <leafValues>
            -4.7793260216712952e-01 1.6290797293186188e-01</leafValues></_>
        <_>
          <internalNodes>
            0 -1 127 -1.4880983508192003e-04</internalNodes>
          <leafValues>
            6.3081943988800049e-01 -1.1635243892669678e-01</leafValues></_>
        <_>
          <internalNodes>
            0 -1 99 -1.0595379397273064e-02</internalNodes>
          <leafValues>
            -9.1215991973876953e-01 7.9530872404575348e-02</leafValues></_>
        <_>
          <internalNodes>
            0 -1 138 1.3039688928984106e-04</internalNodes>
          <leafValues>
            -1.2993296980857849e-01 6.0045534372329712e-01</leafValues></_>
        <_>
          <internalNodes>
            0 -1 367 5.9043377405032516e-04</internalNodes>
          <leafValues>
            1.0560894757509232e-01 -8.1429803371429443e-01</leafValues></_>
        <_>
          <internalNodes>
            0 -1 349 6.2502331275027245e-06</internalNodes>
          <leafValues>
            -2.9228144884109497e-01 2.1996673941612244e-01</leafValues></_>
        <_>
          <internalNodes>
            0 -1 263 -3.3797131618484855e-04</internalNodes>
          <leafValues>
            -7.3190349340438843e-01 9.0231843292713165e-02</leafValues></_>
        <_>
          <internalNodes>
            0 -1 256 1.0627873416524380e-04</internalNodes>
          <leafValues>
            1.3614481687545776e-01 -4.9366465210914612e-01</leafValues></_>
        <_>
          <internalNodes>
            0 -1 58 2.6325942017138004e-03</internalNodes>
          <leafValues>
            7.6739966869354248e-02 -9.0991115570068359e-01</leafValues></_>
        <_>
          <internalNodes>
            0 -1 128 -6.1019243730697781e-05</internalNodes>
          <leafValues>
            3.4982186555862427e-01 -2.1711470186710358e-01</leafValues></_></weakClassifiers></_>
    <!-- stage 29 -->
    <_>
      <maxWeakCount>16</maxWeakCount>
      <stageThreshold>-9.3385350704193115e-01</stageThreshold>
      <weakClassifiers>
        <_>
          <internalNodes>
            0 -1 109 3.8530750316567719e-05</internalNodes>
          <leafValues>
            -2.8237792849540710e-01 3.1002330780029297e-01</leafValues></_>
        <_>
          <internalNodes>
            0 -1 89 1.8955085426568985e-02</internalNodes>
          <leafValues>
            1.2442012131214142e-01 -6.1120748519897461e-01</leafValues></_>
        <_>
          <internalNodes>
            0 -1 336 4.8281195631716400e-05</internalNodes>
          <leafValues>
            -2.1868088841438293e-01 3.6913520097732544e-01</leafValues></_>
        <_>
          <internalNodes>
            0 -1 329 2.5865584611892700e-02</internalNodes>
          <leafValues>
            -1.4924107491970062e-01 6.8625122308731079e-01</leafValues></_>
        <_>
          <internalNodes>
            0 -1 369 -4.9780649133026600e-03</internalNodes>
          <leafValues>
            4.1556927561759949e-01 -1.9473695755004883e-01</leafValues></_>
        <_>
          <internalNodes>
            0 -1 213 1.7169553320854902e-03</internalNodes>
          <leafValues>
            1.3539892435073853e-01 -5.8080130815505981e-01</leafValues></_>
        <_>
          <internalNodes>
            0 -1 223 3.1537455506622791e-03</internalNodes>
          <leafValues>
            -1.9165743887424469e-01 4.1029289364814758e-01</leafValues></_>
        <_>
          <internalNodes>
            0 -1 173 -5.3844449575990438e-04</internalNodes>
          <leafValues>
            -8.5547208786010742e-01 9.5839053392410278e-02</leafValues></_>
        <_>
          <internalNodes>
            0 -1 311 8.0981284554582089e-05</internalNodes>
          <leafValues>
            -1.7023894190788269e-01 4.8008713126182556e-01</leafValues></_>
        <_>
          <internalNodes>
            0 -1 17 -3.0183732509613037e-02</internalNodes>
          <leafValues>
            4.7899547219276428e-01 -1.5956529974937439e-01</leafValues></_>
        <_>
          <internalNodes>
            0 -1 115 1.1230999603867531e-02</internalNodes>
          <leafValues>
            -2.1913880109786987e-01 4.2019778490066528e-01</leafValues></_>
        <_>
          <internalNodes>
            0 -1 117 -6.3391053117811680e-05</internalNodes>
          <leafValues>
            4.0898025035858154e-01 -2.1748742461204529e-01</leafValues></_>
        <_>
          <internalNodes>
            0 -1 334 3.7726275622844696e-03</internalNodes>
          <leafValues>
            1.4349405467510223e-01 -5.3904485702514648e-01</leafValues></_>
        <_>
          <internalNodes>
            0 -1 323 3.7212277675280347e-05</internalNodes>
          <leafValues>
            -2.3272331058979034e-01 4.1957888007164001e-01</leafValues></_>
        <_>
          <internalNodes>
            0 -1 155 -9.4028180465102196e-03</internalNodes>
          <leafValues>
            -5.1370793581008911e-01 1.7439563572406769e-01</leafValues></_>
        <_>
          <internalNodes>
            0 -1 1 5.3792245686054230e-02</internalNodes>
          <leafValues>
            -1.3309249281883240e-01 7.6244974136352539e-01</leafValues></_></weakClassifiers></_></stages>
  <features>
    <_>
      <rects>
        <_>
          0 0 24 18 -1.</_>
        <_>
          0 0 12 9 2.</_>
        <_>
          12 9 12 9 2.</_></rects>
      <tilted>0</tilted></_>
    <_>
      <rects>
        <_>
          0 1 24 20 -1.</_>
        <_>
          0 1 12 10 2.</_>
        <_>
          12 11 12 10 2.</_></rects>
      <tilted>0</tilted></_>
    <_>
      <rects>
        <_>
          0 2 10 29 -1.</_>
        <_>
          5 2 5 29 2.</_></rects>
      <tilted>0</tilted></_>
    <_>
      <rects>
        <_>
          0 2 21 21 -1.</_>
        <_>
          7 2 7 21 2.</_></rects>
      <tilted>0</tilted></_>
    <_>
      <rects>
        <_>
          0 3 10 25 -1.</_>
        <_>
          5 3 5 25 2.</_></rects>
      <tilted>0</tilted></_>
    <_>
      <rects>
        <_>
          0 4 10 16 -1.</_>
        <_>
          5 4 5 16 2.</_></rects>
      <tilted>0</tilted></_>
    <_>
      <rects>
        <_>
          0 4 10 31 -1.</_>
        <_>
          5 4 5 31 2.</_></rects>
      <tilted>0</tilted></_>
    <_>
      <rects>
        <_>
          0 6 12 36 -1.</_>
        <_>
          0 6 6 18 2.</_>
        <_>
          6 24 6 18 2.</_></rects>
      <tilted>0</tilted></_>
    <_>
      <rects>
        <_>
          0 6 44 5 -1.</_>
        <_>
          22 6 22 5 2.</_></rects>
      <tilted>0</tilted></_>
    <_>
      <rects>
        <_>
          0 7 14 36 -1.</_>
        <_>
          7 7 7 36 2.</_></rects>
      <tilted>0</tilted></_>
    <_>
      <rects>
        <_>
          0 9 14 21 -1.</_>
        <_>
          7 9 7 21 2.</_></rects>
      <tilted>0</tilted></_>
    <_>
      <rects>
        <_>
          0 10 10 13 -1.</_>
        <_>
          5 10 5 13 2.</_></rects>
      <tilted>0</tilted></_>
    <_>
      <rects>
        <_>
          0 11 18 29 -1.</_>
        <_>
          9 11 9 29 2.</_></rects>
      <tilted>0</tilted></_>
    <_>
      <rects>
        <_>
          0 11 20 29 -1.</_>
        <_>
          10 11 10 29 2.</_></rects>
      <tilted>0</tilted></_>
    <_>
      <rects>
        <_>
          0 16 14 7 -1.</_>
        <_>
          7 16 7 7 2.</_></rects>
      <tilted>0</tilted></_>
    <_>
      <rects>
        <_>
          0 20 20 26 -1.</_>
        <_>
          10 20 10 26 2.</_></rects>
      <tilted>0</tilted></_>
    <_>
      <rects>
        <_>
          0 36 16 6 -1.</_>
        <_>
          8 36 8 6 2.</_></rects>
      <tilted>0</tilted></_>
    <_>
      <rects>
        <_>
          0 38 40 12 -1.</_>
        <_>
          0 44 40 6 2.</_></rects>
      <tilted>0</tilted></_>
    <_>
      <rects>
        <_>
          0 40 8 2 -1.</_>
        <_>
          0 40 4 1 2.</_>
        <_>
          4 41 4 1 2.</_></rects>
      <tilted>0</tilted></_>
    <_>
      <rects>
        <_>
          1 0 28 14 -1.</_>
        <_>
          1 0 14 7 2.</_>
        <_>
          15 7 14 7 2.</_></rects>
      <tilted>0</tilted></_>
    <_>
      <rects>
        <_>
          1 0 49 10 -1.</_>
        <_>
          1 5 49 5 2.</_></rects>
      <tilted>0</tilted></_>
    <_>
      <rects>
        <_>
          1 3 2 2 -1.</_>
        <_>
          1 3 1 1 2.</_>
        <_>
          2 4 1 1 2.</_></rects>
      <tilted>0</tilted></_>
    <_>
      <rects>
        <_>
          1 4 28 12 -1.</_>
        <_>
          1 4 14 6 2.</_>
        <_>
          15 10 14 6 2.</_></rects>
      <tilted>0</tilted></_>
    <_>
      <rects>
        <_>
          1 5 14 25 -1.</_>
        <_>
          8 5 7 25 2.</_></rects>
      <tilted>0</tilted></_>
    <_>
      <rects>
        <_>
          1 8 14 6 -1.</_>
        <_>
          1 11 14 3 2.</_></rects>
      <tilted>0</tilted></_>
    <_>
      <rects>
        <_>
          1 9 41 4 -1.</_>
        <_>
          1 11 41 2 2.</_></rects>
      <tilted>0</tilted></_>
    <_>
      <rects>
        <_>
          1 12 42 18 -1.</_>
        <_>
          1 18 42 6 2.</_></rects>
      <tilted>0</tilted></_>
    <_>
      <rects>
        <_>
          1 13 14 25 -1.</_>
        <_>
          8 13 7 25 2.</_></rects>
      <tilted>0</tilted></_>
    <_>
      <rects>
        <_>
          1 13 16 4 -1.</_>
        <_>
          1 13 8 2 2.</_>
        <_>
          9 15 8 2 2.</_></rects>
      <tilted>0</tilted></_>
    <_>
      <rects>
        <_>
          1 13 24 16 -1.</_>
        <_>
          1 13 12 8 2.</_>
        <_>
          13 21 12 8 2.</_></rects>
      <tilted>0</tilted></_>
    <_>
      <rects>
        <_>
          1 13 25 14 -1.</_>
        <_>
          1 20 25 7 2.</_></rects>
      <tilted>0</tilted></_>
    <_>
      <rects>
        <_>
          2 0 45 10 -1.</_>
        <_>
          2 5 45 5 2.</_></rects>
      <tilted>0</tilted></_>
    <_>
      <rects>
        <_>
          2 2 28 12 -1.</_>
        <_>
          2 2 14 6 2.</_>
        <_>
          16 8 14 6 2.</_></rects>
      <tilted>0</tilted></_>
    <_>
      <rects>
        <_>
          2 6 24 2 -1.</_>
        <_>
          14 6 12 2 2.</_></rects>
      <tilted>0</tilted></_>
    <_>
      <rects>
        <_>
          2 16 48 2 -1.</_>
        <_>
          2 16 24 1 2.</_>
        <_>
          26 17 24 1 2.</_></rects>
      <tilted>0</tilted></_>
    <_>
      <rects>
        <_>
          2 21 2 2 -1.</_>
        <_>
          2 21 1 1 2.</_>
        <_>
          3 22 1 1 2.</_></rects>
      <tilted>0</tilted></_>
    <_>
      <rects>
        <_>
          2 39 36 8 -1.</_>
        <_>
          2 39 18 4 2.</_>
        <_>
          20 43 18 4 2.</_></rects>
      <tilted>0</tilted></_>
    <_>
      <rects>
        <_>
          2 48 2 2 -1.</_>
        <_>
          2 49 2 1 2.</_></rects>
      <tilted>0</tilted></_>
    <_>
      <rects>
        <_>
          3 6 17 4 -1.</_>
        <_>
          3 8 17 2 2.</_></rects>
      <tilted>0</tilted></_>
    <_>
      <rects>
        <_>
          3 11 46 16 -1.</_>
        <_>
          3 11 23 8 2.</_>
        <_>
          26 19 23 8 2.</_></rects>
      <tilted>0</tilted></_>
    <_>
      <rects>
        <_>
          3 18 8 14 -1.</_>
        <_>
          7 18 4 14 2.</_></rects>
      <tilted>0</tilted></_>
    <_>
      <rects>
        <_>
          3 20 18 6 -1.</_>
        <_>
          9 20 6 6 2.</_></rects>
      <tilted>0</tilted></_>
    <_>
      <rects>
        <_>
          3 48 22 2 -1.</_>
        <_>
          3 48 11 1 2.</_>
        <_>
          14 49 11 1 2.</_></rects>
      <tilted>0</tilted></_>
    <_>
      <rects>
        <_>
          4 1 46 8 -1.</_>
        <_>
          4 5 46 4 2.</_></rects>
      <tilted>0</tilted></_>
    <_>
      <rects>
        <_>
          4 9 42 2 -1.</_>
        <_>
          25 9 21 2 2.</_></rects>
      <tilted>0</tilted></_>
    <_>
      <rects>
        <_>
          4 10 42 4 -1.</_>
        <_>
          25 10 21 4 2.</_></rects>
      <tilted>0</tilted></_>
    <_>
      <rects>
        <_>
          4 10 44 14 -1.</_>
        <_>
          4 10 22 7 2.</_>
        <_>
          26 17 22 7 2.</_></rects>
      <tilted>0</tilted></_>
    <_>
      <rects>
        <_>
          4 28 18 1 -1.</_>
        <_>
          10 28 6 1 2.</_></rects>
      <tilted>0</tilted></_>
    <_>
      <rects>
        <_>
          4 38 28 10 -1.</_>
        <_>
          18 38 14 10 2.</_></rects>
      <tilted>0</tilted></_>
    <_>
      <rects>
        <_>
          4 45 2 3 -1.</_>
        <_>
          4 46 2 1 2.</_></rects>
      <tilted>0</tilted></_>
    <_>
      <rects>
        <_>
          5 0 16 8 -1.</_>
        <_>
          5 0 8 4 2.</_>
        <_>
          13 4 8 4 2.</_></rects>
      <tilted>0</tilted></_>
    <_>
      <rects>
        <_>
          5 1 32 14 -1.</_>
        <_>
          5 8 32 7 2.</_></rects>
      <tilted>0</tilted></_>
    <_>
      <rects>
        <_>
          5 8 44 3 -1.</_>
        <_>
          27 8 22 3 2.</_></rects>
      <tilted>0</tilted></_>
    <_>
      <rects>
        <_>
          5 14 38 2 -1.</_>
        <_>
          5 14 19 1 2.</_>
        <_>
          24 15 19 1 2.</_></rects>
      <tilted>0</tilted></_>
    <_>
      <rects>
        <_>
          5 15 40 6 -1.</_>
        <_>
          5 15 20 3 2.</_>
        <_>
          25 18 20 3 2.</_></rects>
      <tilted>0</tilted></_>
    <_>
      <rects>
        <_>
          5 29 37 10 -1.</_>
        <_>
          5 34 37 5 2.</_></rects>
      <tilted>0</tilted></_>
    <_>
      <rects>
        <_>
          6 0 36 18 -1.</_>
        <_>
          6 9 36 9 2.</_></rects>
      <tilted>0</tilted></_>
    <_>
      <rects>
        <_>
          6 1 33 12 -1.</_>
        <_>
          6 7 33 6 2.</_></rects>
      <tilted>0</tilted></_>
    <_>
      <rects>
        <_>
          6 34 36 2 -1.</_>
        <_>
          6 34 18 1 2.</_>
        <_>
          24 35 18 1 2.</_></rects>
      <tilted>0</tilted></_>
    <_>
      <rects>
        <_>
          6 45 2 2 -1.</_>
        <_>
          6 45 1 1 2.</_>
        <_>
          7 46 1 1 2.</_></rects>
      <tilted>0</tilted></_>
    <_>
      <rects>
        <_>
          6 47 2 2 -1.</_>
        <_>
          6 47 1 1 2.</_>
        <_>
          7 48 1 1 2.</_></rects>
      <tilted>0</tilted></_>
    <_>
      <rects>
        <_>
          7 0 13 12 -1.</_>
        <_>
          7 6 13 6 2.</_></rects>
      <tilted>0</tilted></_>
    <_>
      <rects>
        <_>
          7 0 32 8 -1.</_>
        <_>
          7 4 32 4 2.</_></rects>
      <tilted>0</tilted></_>
    <_>
      <rects>
        <_>
          7 7 3 12 -1.</_>
        <_>
          7 11 3 4 2.</_></rects>
      <tilted>0</tilted></_>
    <_>
      <rects>
        <_>
          7 21 8 1 -1.</_>
        <_>
          11 21 4 1 2.</_></rects>
      <tilted>0</tilted></_>
    <_>
      <rects>
        <_>
          8 0 18 12 -1.</_>
        <_>
          8 6 18 6 2.</_></rects>
      <tilted>0</tilted></_>
    <_>
      <rects>
        <_>
          8 0 34 18 -1.</_>
        <_>
          8 9 34 9 2.</_></rects>
      <tilted>0</tilted></_>
    <_>
      <rects>
        <_>
          8 5 10 5 -1.</_>
        <_>
          13 5 5 5 2.</_></rects>
      <tilted>0</tilted></_>
    <_>
      <rects>
        <_>
          8 9 1 3 -1.</_>
        <_>
          8 10 1 1 2.</_></rects>
      <tilted>0</tilted></_>
    <_>
      <rects>
        <_>
          8 9 1 4 -1.</_>
        <_>
          8 11 1 2 2.</_></rects>
      <tilted>0</tilted></_>
    <_>
      <rects>
        <_>
          8 14 38 10 -1.</_>
        <_>
          8 14 19 5 2.</_>
        <_>
          27 19 19 5 2.</_></rects>
      <tilted>0</tilted></_>
    <_>
      <rects>
        <_>
          8 24 42 14 -1.</_>
        <_>
          8 31 42 7 2.</_></rects>
      <tilted>0</tilted></_>
    <_>
      <rects>
        <_>
          8 33 35 8 -1.</_>
        <_>
          8 37 35 4 2.</_></rects>
      <tilted>0</tilted></_>
    <_>
      <rects>
        <_>
          8 45 2 2 -1.</_>
        <_>
          8 45 1 1 2.</_>
        <_>
          9 46 1 1 2.</_></rects>
      <tilted>0</tilted></_>
    <_>
      <rects>
        <_>
          9 1 21 18 -1.</_>
        <_>
          9 10 21 9 2.</_></rects>
      <tilted>0</tilted></_>
    <_>
      <rects>
        <_>
          9 12 32 18 -1.</_>
        <_>
          9 21 32 9 2.</_></rects>
      <tilted>0</tilted></_>
    <_>
      <rects>
        <_>
          9 14 34 4 -1.</_>
        <_>
          9 14 17 2 2.</_>
        <_>
          26 16 17 2 2.</_></rects>
      <tilted>0</tilted></_>
    <_>
      <rects>
        <_>
          9 16 10 12 -1.</_>
        <_>
          9 16 5 6 2.</_>
        <_>
          14 22 5 6 2.</_></rects>
      <tilted>0</tilted></_>
    <_>
      <rects>
        <_>
          9 16 16 8 -1.</_>
        <_>
          9 20 16 4 2.</_></rects>
      <tilted>0</tilted></_>
    <_>
      <rects>
        <_>
          9 18 34 4 -1.</_>
        <_>
          9 18 17 2 2.</_>
        <_>
          26 20 17 2 2.</_></rects>
      <tilted>0</tilted></_>
    <_>
      <rects>
        <_>
          9 20 32 10 -1.</_>
        <_>
          9 20 16 5 2.</_>
        <_>
          25 25 16 5 2.</_></rects>
      <tilted>0</tilted></_>
    <_>
      <rects>
        <_>
          10 0 34 12 -1.</_>
        <_>
          10 6 34 6 2.</_></rects>
      <tilted>0</tilted></_>
    <_>
      <rects>
        <_>
          10 6 35 44 -1.</_>
        <_>
          10 28 35 22 2.</_></rects>
      <tilted>0</tilted></_>
    <_>
      <rects>
        <_>
          10 7 2 4 -1.</_>
        <_>
          10 7 1 2 2.</_>
        <_>
          11 9 1 2 2.</_></rects>
      <tilted>0</tilted></_>
    <_>
      <rects>
        <_>
          10 20 2 2 -1.</_>
        <_>
          10 21 2 1 2.</_></rects>
      <tilted>0</tilted></_>
    <_>
      <rects>
        <_>
          10 25 30 14 -1.</_>
        <_>
          10 25 15 7 2.</_>
        <_>
          25 32 15 7 2.</_></rects>
      <tilted>0</tilted></_>
    <_>
      <rects>
        <_>
          10 48 9 2 -1.</_>
        <_>
          10 49 9 1 2.</_></rects>
      <tilted>0</tilted></_>
    <_>
      <rects>
        <_>
          11 0 35 20 -1.</_>
        <_>
          11 10 35 10 2.</_></rects>
      <tilted>0</tilted></_>
    <_>
      <rects>
        <_>
          11 14 2 2 -1.</_>
        <_>
          11 14 1 1 2.</_>
        <_>
          12 15 1 1 2.</_></rects>
      <tilted>0</tilted></_>
    <_>
      <rects>
        <_>
          11 15 30 14 -1.</_>
        <_>
          11 15 15 7 2.</_>
        <_>
          26 22 15 7 2.</_></rects>
      <tilted>0</tilted></_>
    <_>
      <rects>
        <_>
          11 15 30 18 -1.</_>
        <_>
          11 15 15 9 2.</_>
        <_>
          26 24 15 9 2.</_></rects>
      <tilted>0</tilted></_>
    <_>
      <rects>
        <_>
          11 19 10 2 -1.</_>
        <_>
          16 19 5 2 2.</_></rects>
      <tilted>0</tilted></_>
    <_>
      <rects>
        <_>
          11 41 2 6 -1.</_>
        <_>
          12 41 1 6 2.</_></rects>
      <tilted>0</tilted></_>
    <_>
      <rects>
        <_>
          12 0 25 18 -1.</_>
        <_>
          12 9 25 9 2.</_></rects>
      <tilted>0</tilted></_>
    <_>
      <rects>
        <_>
          12 1 37 12 -1.</_>
        <_>
          12 7 37 6 2.</_></rects>
      <tilted>0</tilted></_>
    <_>
      <rects>
        <_>
          12 15 2 5 -1.</_>
        <_>
          13 15 1 5 2.</_></rects>
      <tilted>0</tilted></_>
    <_>
      <rects>
        <_>
          12 17 4 3 -1.</_>
        <_>
          14 17 2 3 2.</_></rects>
      <tilted>0</tilted></_>
    <_>
      <rects>
        <_>
          12 18 26 2 -1.</_>
        <_>
          12 18 13 1 2.</_>
        <_>
          25 19 13 1 2.</_></rects>
      <tilted>0</tilted></_>
    <_>
      <rects>
        <_>
          12 20 12 2 -1.</_>
        <_>
          12 21 12 1 2.</_></rects>
      <tilted>0</tilted></_>
    <_>
      <rects>
        <_>
          12 22 10 5 -1.</_>
        <_>
          17 22 5 5 2.</_></rects>
      <tilted>0</tilted></_>
    <_>
      <rects>
        <_>
          12 23 24 16 -1.</_>
        <_>
          12 31 24 8 2.</_></rects>
      <tilted>0</tilted></_>
    <_>
      <rects>
        <_>
          12 25 5 2 -1.</_>
        <_>
          12 26 5 1 2.</_></rects>
      <tilted>0</tilted></_>
    <_>
      <rects>
        <_>
          12 29 8 2 -1.</_>
        <_>
          12 29 4 1 2.</_>
        <_>
          16 30 4 1 2.</_></rects>
      <tilted>0</tilted></_>
    <_>
      <rects>
        <_>
          12 34 2 12 -1.</_>
        <_>
          12 34 1 6 2.</_>
        <_>
          13 40 1 6 2.</_></rects>
      <tilted>0</tilted></_>
    <_>
      <rects>
        <_>
          12 40 2 6 -1.</_>
        <_>
          12 40 1 3 2.</_>
        <_>
          13 43 1 3 2.</_></rects>
      <tilted>0</tilted></_>
    <_>
      <rects>
        <_>
          13 8 7 2 -1.</_>
        <_>
          13 9 7 1 2.</_></rects>
      <tilted>0</tilted></_>
    <_>
      <rects>
        <_>
          13 10 4 40 -1.</_>
        <_>
          13 10 2 20 2.</_>
        <_>
          15 30 2 20 2.</_></rects>
      <tilted>0</tilted></_>
    <_>
      <rects>
        <_>
          13 14 32 22 -1.</_>
        <_>
          13 14 16 11 2.</_>
        <_>
          29 25 16 11 2.</_></rects>
      <tilted>0</tilted></_>
    <_>
      <rects>
        <_>
          13 16 2 5 -1.</_>
        <_>
          14 16 1 5 2.</_></rects>
      <tilted>0</tilted></_>
    <_>
      <rects>
        <_>
          13 18 1 4 -1.</_>
        <_>
          13 20 1 2 2.</_></rects>
      <tilted>0</tilted></_>
    <_>
      <rects>
        <_>
          13 19 8 8 -1.</_>
        <_>
          17 19 4 8 2.</_></rects>
      <tilted>0</tilted></_>
    <_>
      <rects>
        <_>
          13 21 7 6 -1.</_>
        <_>
          13 24 7 3 2.</_></rects>
      <tilted>0</tilted></_>
    <_>
      <rects>
        <_>
          13 25 4 4 -1.</_>
        <_>
          13 25 2 2 2.</_>
        <_>
          15 27 2 2 2.</_></rects>
      <tilted>0</tilted></_>
    <_>
      <rects>
        <_>
          13 28 6 2 -1.</_>
        <_>
          13 28 3 1 2.</_>
        <_>
          16 29 3 1 2.</_></rects>
      <tilted>0</tilted></_>
    <_>
      <rects>
        <_>
          13 29 25 4 -1.</_>
        <_>
          13 31 25 2 2.</_></rects>
      <tilted>0</tilted></_>
    <_>
      <rects>
        <_>
          13 35 31 14 -1.</_>
        <_>
          13 42 31 7 2.</_></rects>
      <tilted>0</tilted></_>
    <_>
      <rects>
        <_>
          13 36 2 13 -1.</_>
        <_>
          14 36 1 13 2.</_></rects>
      <tilted>0</tilted></_>
    <_>
      <rects>
        <_>
          13 45 6 1 -1.</_>
        <_>
          16 45 3 1 2.</_></rects>
      <tilted>0</tilted></_>
    <_>
      <rects>
        <_>
          14 0 20 22 -1.</_>
