<?xml version="1.0"?>
<opencv_storage>
<stage15>
  <maxWeakCount>10</maxWeakCount>
  <stageThreshold>-1.1560267210006714e+00</stageThreshold>
  <weakClassifiers>
    <_>
      <internalNodes>
        0 -1 1340792 7.5392415747046471e-03</internalNodes>
      <leafValues>
        -4.4036698341369629e-01 4.1379311680793762e-01</leafValues></_>
    <_>
      <internalNodes>
        0 -1 1032758 2.0757127553224564e-02</internalNodes>
      <leafValues>
        -2.6391130685806274e-01 5.2616101503372192e-01</leafValues></_>
    <_>
      <internalNodes>
        0 -1 1089728 3.5528987646102905e-02</internalNodes>
      <leafValues>
        -1.5342274308204651e-01 7.5926023721694946e-01</leafValues></_>
    <_>
      <internalNodes>
        0 -1 688616 -3.3458866178989410e-02</internalNodes>
      <leafValues>
        5.1632183790206909e-01 -3.5009926557540894e-01</leafValues></_>
    <_>
      <internalNodes>
        0 -1 1424433 -3.6865947768092155e-03</internalNodes>
      <leafValues>
        6.2001216411590576e-01 -1.9338719546794891e-01</leafValues></_>
    <_>
      <internalNodes>
        0 -1 1800666 1.9928351044654846e-02</internalNodes>
      <leafValues>
        2.3164695501327515e-01 -6.7884206771850586e-01</leafValues></_>
    <_>
      <internalNodes>
        0 -1 2582518 5.4294064284476917e-06</internalNodes>
      <leafValues>
        -3.1980633735656738e-01 4.1161325573921204e-01</leafValues></_>
    <_>
      <internalNodes>
        0 -1 2582518 -5.5627397159696557e-06</internalNodes>
      <leafValues>
        4.1529160737991333e-01 -2.9946959018707275e-01</leafValues></_>
    <_>
      <internalNodes>
        0 -1 2547622 -1.1937996745109558e-01</internalNodes>
      <leafValues>
        -6.5180045366287231e-01 2.2571426630020142e-01</leafValues></_>
    <_>
      <internalNodes>
        0 -1 1515023 1.0207774175796658e-04</internalNodes>
      <leafValues>
        -3.4285399317741394e-01 3.5756668448448181e-01</leafValues></_></weakClassifiers></stage15>
</opencv_storage>
