<?xml version="1.0"?>
<opencv_storage>
<stage1>
  <maxWeakCount>8</maxWeakCount>
  <stageThreshold>-8.3796870708465576e-01</stageThreshold>
  <weakClassifiers>
    <_>
      <internalNodes>
        0 -1 1838389 -8.3637032657861710e-03</internalNodes>
      <leafValues>
        7.5000000000000000e-01 -2.5806450843811035e-01</leafValues></_>
    <_>
      <internalNodes>
        0 -1 2216518 -8.6010396480560303e-03</internalNodes>
      <leafValues>
        6.6381376981735229e-01 -2.3055928945541382e-01</leafValues></_>
    <_>
      <internalNodes>
        0 -1 2904754 -1.8672026693820953e-02</internalNodes>
      <leafValues>
        8.5983800888061523e-01 -2.7757558226585388e-01</leafValues></_>
    <_>
      <internalNodes>
        0 -1 2909638 1.3606198132038116e-02</internalNodes>
      <leafValues>
        -2.2633872926235199e-01 8.4162569046020508e-01</leafValues></_>
    <_>
      <internalNodes>
        0 -1 47859 4.3843194842338562e-02</internalNodes>
      <leafValues>
        -1.3891460001468658e-01 8.4787499904632568e-01</leafValues></_>
    <_>
      <internalNodes>
        0 -1 64838 -1.0580981150269508e-02</internalNodes>
      <leafValues>
        7.4455732107162476e-01 -2.1111123263835907e-01</leafValues></_>
    <_>
      <internalNodes>
        0 -1 2375308 5.8453530073165894e-03</internalNodes>
      <leafValues>
        -2.6054140925407410e-01 5.8495235443115234e-01</leafValues></_>
    <_>
      <internalNodes>
        0 -1 43522 1.1596081778407097e-02</internalNodes>
      <leafValues>
        -1.9053189456462860e-01 8.3256429433822632e-01</leafValues></_></weakClassifiers></stage1>
</opencv_storage>
