<?xml version="1.0"?>
<opencv_storage>
<stage11>
  <maxWeakCount>17</maxWeakCount>
  <stageThreshold>-1.0223809480667114e+00</stageThreshold>
  <weakClassifiers>
    <_>
      <internalNodes>
        0 -1 1916629 6.1682885279878974e-04</internalNodes>
      <leafValues>
        -2.5497287511825562e-01 4.0634006261825562e-01</leafValues></_>
    <_>
      <internalNodes>
        0 -1 1784857 -9.7064256668090820e-02</internalNodes>
      <leafValues>
        6.7421048879623413e-01 -1.2822031974792480e-01</leafValues></_>
    <_>
      <internalNodes>
        0 -1 2916883 -2.7622569352388382e-02</internalNodes>
      <leafValues>
        6.1400198936462402e-01 -1.4364470541477203e-01</leafValues></_>
    <_>
      <internalNodes>
        0 -1 2318710 1.2814104557037354e-03</internalNodes>
      <leafValues>
        -2.0241326093673706e-01 3.9566087722778320e-01</leafValues></_>
    <_>
      <internalNodes>
        0 -1 2910362 1.3648622669279575e-02</internalNodes>
      <leafValues>
        -1.7214743793010712e-01 5.0709331035614014e-01</leafValues></_>
    <_>
      <internalNodes>
        0 -1 1439097 5.1902290433645248e-03</internalNodes>
      <leafValues>
        -1.5725187957286835e-01 5.1377451419830322e-01</leafValues></_>
    <_>
      <internalNodes>
        0 -1 2613231 7.6980027370154858e-04</internalNodes>
      <leafValues>
        -1.4564783871173859e-01 5.0946760177612305e-01</leafValues></_>
    <_>
      <internalNodes>
        0 -1 1362040 4.4660139246843755e-04</internalNodes>
      <leafValues>
        1.1022192984819412e-01 -7.1884602308273315e-01</leafValues></_>
    <_>
      <internalNodes>
        0 -1 2526987 2.3754080757498741e-04</internalNodes>
      <leafValues>
        -1.7049856483936310e-01 4.8676365613937378e-01</leafValues></_>
    <_>
      <internalNodes>
        0 -1 2310597 -1.5277250204235315e-03</internalNodes>
      <leafValues>
        3.4945386648178101e-01 -2.4540317058563232e-01</leafValues></_>
    <_>
      <internalNodes>
        0 -1 2306969 2.3856353946030140e-03</internalNodes>
      <leafValues>
        -1.5559387207031250e-01 5.2356714010238647e-01</leafValues></_>
    <_>
      <internalNodes>
        0 -1 3023484 -5.4298050235956907e-04</internalNodes>
      <leafValues>
        -9.2776179313659668e-01 1.3714654743671417e-01</leafValues></_>
    <_>
      <internalNodes>
        0 -1 3003806 -3.5036099143326283e-04</internalNodes>
      <leafValues>
        -8.4026950597763062e-01 4.5547980815172195e-02</leafValues></_>
    <_>
      <internalNodes>
        0 -1 1589072 -2.6530673494562507e-04</internalNodes>
      <leafValues>
        3.2066905498504639e-01 -2.8236022591590881e-01</leafValues></_>
    <_>
      <internalNodes>
        0 -1 1898545 8.2038820255547762e-04</internalNodes>
      <leafValues>
        1.1470400542020798e-01 -8.2348555326461792e-01</leafValues></_>
    <_>
      <internalNodes>
        0 -1 1159175 2.1857786923646927e-02</internalNodes>
      <leafValues>
        9.4148486852645874e-02 -7.0003169775009155e-01</leafValues></_>
    <_>
      <internalNodes>
        0 -1 173031 -4.0853183716535568e-02</internalNodes>
      <leafValues>
        6.9280493259429932e-01 -1.2111121416091919e-01</leafValues></_></weakClassifiers></stage11>
</opencv_storage>
