<?xml version="1.0"?>
<opencv_storage>
<stage17>
  <maxWeakCount>12</maxWeakCount>
  <stageThreshold>-9.1742014884948730e-01</stageThreshold>
  <weakClassifiers>
    <_>
      <internalNodes>
        0 -1 1988935 1.7171463696286082e-04</internalNodes>
      <leafValues>
        -2.0629921555519104e-01 4.9433961510658264e-01</leafValues></_>
    <_>
      <internalNodes>
        0 -1 1278097 -8.8289245963096619e-02</internalNodes>
      <leafValues>
        5.3565913438796997e-01 -1.6919466853141785e-01</leafValues></_>
    <_>
      <internalNodes>
        0 -1 788000 2.1028216928243637e-02</internalNodes>
      <leafValues>
        -1.5443377196788788e-01 6.4664369821548462e-01</leafValues></_>
    <_>
      <internalNodes>
        0 -1 988262 5.6006374506978318e-06</internalNodes>
      <leafValues>
        -2.1510306000709534e-01 4.1421934962272644e-01</leafValues></_>
    <_>
      <internalNodes>
        0 -1 2744812 -3.3298456401098520e-06</internalNodes>
      <leafValues>
        2.7465251088142395e-01 -3.0469387769699097e-01</leafValues></_>
    <_>
      <internalNodes>
        0 -1 1953715 -3.7395691033452749e-03</internalNodes>
      <leafValues>
        -6.0399520397186279e-01 1.6480952501296997e-01</leafValues></_>
    <_>
      <internalNodes>
        0 -1 1596396 -8.6994394659996033e-03</internalNodes>
      <leafValues>
        5.6301045417785645e-01 -1.7128653824329376e-01</leafValues></_>
    <_>
      <internalNodes>
        0 -1 1037682 -5.8950451202690601e-03</internalNodes>
      <leafValues>
        -8.6575800180435181e-01 1.4443869888782501e-01</leafValues></_>
    <_>
      <internalNodes>
        0 -1 1777070 -2.3370537906885147e-02</internalNodes>
      <leafValues>
        5.0468122959136963e-01 -2.2163523733615875e-01</leafValues></_>
    <_>
      <internalNodes>
        0 -1 2201136 6.3200313597917557e-03</internalNodes>
      <leafValues>
        -2.1850134432315826e-01 4.4218882918357849e-01</leafValues></_>
    <_>
      <internalNodes>
        0 -1 789534 -1.4663711190223694e-02</internalNodes>
      <leafValues>
        5.2190107107162476e-01 -1.6114318370819092e-01</leafValues></_>
    <_>
      <internalNodes>
        0 -1 2013043 4.3679840862751007e-02</internalNodes>
      <leafValues>
        -8.7421722710132599e-02 9.2706394195556641e-01</leafValues></_></weakClassifiers></stage17>
</opencv_storage>
