<?xml version="1.0"?>
<opencv_storage>
<stage13>
  <maxWeakCount>8</maxWeakCount>
  <stageThreshold>-1.0173517465591431e+00</stageThreshold>
  <weakClassifiers>
    <_>
      <internalNodes>
        0 -1 2321098 -1.5465270262211561e-03</internalNodes>
      <leafValues>
        -6.4968150854110718e-01 3.4812286496162415e-01</leafValues></_>
    <_>
      <internalNodes>
        0 -1 2476814 7.7863346086815000e-04</internalNodes>
      <leafValues>
        -2.4304190278053284e-01 6.7588669061660767e-01</leafValues></_>
    <_>
      <internalNodes>
        0 -1 1734749 -3.0597893783124164e-05</internalNodes>
      <leafValues>
        6.1422216892242432e-01 -2.4210761487483978e-01</leafValues></_>
    <_>
      <internalNodes>
        0 -1 2263540 3.0058138236199738e-06</internalNodes>
      <leafValues>
        -2.8026589751243591e-01 4.8205512762069702e-01</leafValues></_>
    <_>
      <internalNodes>
        0 -1 2263540 -3.1238409974321257e-06</internalNodes>
      <leafValues>
        5.8576959371566772e-01 -3.3511975407600403e-01</leafValues></_>
    <_>
      <internalNodes>
        0 -1 1764386 -1.0227099992334843e-03</internalNodes>
      <leafValues>
        -3.2191362977027893e-01 4.2830392718315125e-01</leafValues></_>
    <_>
      <internalNodes>
        0 -1 2741694 4.2300580389564857e-05</internalNodes>
      <leafValues>
        -2.4100507795810699e-01 6.3357603549957275e-01</leafValues></_>
    <_>
      <internalNodes>
        0 -1 2621336 4.7443376388400793e-05</internalNodes>
      <leafValues>
        -2.1675494313240051e-01 6.4612388610839844e-01</leafValues></_></weakClassifiers></stage13>
</opencv_storage>
