<?xml version="1.0"?>
<opencv_storage>
<stage21>
  <maxWeakCount>20</maxWeakCount>
  <stageThreshold>-9.1150814294815063e-01</stageThreshold>
  <weakClassifiers>
    <_>
      <internalNodes>
        0 -1 2616580 -2.0104676950722933e-03</internalNodes>
      <leafValues>
        5.2195119857788086e-01 -1.5395683050155640e-01</leafValues></_>
    <_>
      <internalNodes>
        0 -1 1052659 -1.5662707388401031e-02</internalNodes>
      <leafValues>
        -5.6597518920898438e-01 1.3620695471763611e-01</leafValues></_>
    <_>
      <internalNodes>
        0 -1 1765960 2.2544333478435874e-04</internalNodes>
      <leafValues>
        -1.3160723447799683e-01 4.7783911228179932e-01</leafValues></_>
    <_>
      <internalNodes>
        0 -1 663430 2.5750173255801201e-02</internalNodes>
      <leafValues>
        -1.9982659816741943e-01 3.8840940594673157e-01</leafValues></_>
    <_>
      <internalNodes>
        0 -1 1605162 -9.1179419541731477e-05</internalNodes>
      <leafValues>
        3.6310422420501709e-01 -1.9743514060974121e-01</leafValues></_>
    <_>
      <internalNodes>
        0 -1 1870 -5.5340185761451721e-02</internalNodes>
      <leafValues>
        6.6221791505813599e-01 -1.2350676953792572e-01</leafValues></_>
    <_>
      <internalNodes>
        0 -1 2005538 4.1998036205768585e-02</internalNodes>
      <leafValues>
        -1.4019806683063507e-01 4.9472647905349731e-01</leafValues></_>
    <_>
      <internalNodes>
        0 -1 2150666 5.8254241943359375e-02</internalNodes>
      <leafValues>
        -1.3808885216712952e-01 6.6036528348922729e-01</leafValues></_>
    <_>
      <internalNodes>
        0 -1 300531 1.5739521477371454e-03</internalNodes>
      <leafValues>
        1.6578894853591919e-01 -6.2224018573760986e-01</leafValues></_>
    <_>
      <internalNodes>
        0 -1 2652571 7.4366566877870355e-06</internalNodes>
      <leafValues>
        -2.9749080538749695e-01 2.6179203391075134e-01</leafValues></_>
    <_>
      <internalNodes>
        0 -1 2031409 2.5293398648500443e-03</internalNodes>
      <leafValues>
        8.9829601347446442e-02 -8.4118121862411499e-01</leafValues></_>
    <_>
      <internalNodes>
        0 -1 1659388 3.2581676350673661e-05</internalNodes>
      <leafValues>
        -2.1478463709354401e-01 3.3612832427024841e-01</leafValues></_>
    <_>
      <internalNodes>
        0 -1 3023704 1.4573649968951941e-04</internalNodes>
      <leafValues>
        1.2023048102855682e-01 -7.1753567457199097e-01</leafValues></_>
    <_>
      <internalNodes>
        0 -1 2663339 -1.2556520232465118e-04</internalNodes>
      <leafValues>
        5.6402009725570679e-01 -1.5073588490486145e-01</leafValues></_>
    <_>
      <internalNodes>
        0 -1 2184816 -4.0537939639762044e-04</internalNodes>
      <leafValues>
        -8.4299522638320923e-01 1.1925893276929855e-01</leafValues></_>
    <_>
      <internalNodes>
        0 -1 2701866 -6.3502448028884828e-05</internalNodes>
      <leafValues>
        4.4144049286842346e-01 -1.9496430456638336e-01</leafValues></_>
    <_>
      <internalNodes>
        0 -1 155622 -1.0634378530085087e-02</internalNodes>
      <leafValues>
        -9.0011888742446899e-01 7.9927839338779449e-02</leafValues></_>
    <_>
      <internalNodes>
        0 -1 2749123 1.4407263370230794e-03</internalNodes>
      <leafValues>
        1.2661746144294739e-01 -5.3761440515518188e-01</leafValues></_>
    <_>
      <internalNodes>
        0 -1 2607677 5.9195952489972115e-03</internalNodes>
      <leafValues>
        6.4112745225429535e-02 -9.8566818237304688e-01</leafValues></_>
    <_>
      <internalNodes>
        0 -1 2505721 -7.6643536885967478e-06</internalNodes>
      <leafValues>
        2.3280656337738037e-01 -3.0404826998710632e-01</leafValues></_></weakClassifiers></stage21>
</opencv_storage>
